/*
----------------------------------------------------------------------------------
--	(c) Rajesh C Panicker, NUS,
--  Description : AXI Stream Coprocessor (HLS), implementing the sum of 4 numbers
--	License terms :
--	You are free to use this code as long as you
--		(i) DO NOT post a modified version of this on any public repository;
--		(ii) use it only for educational purposes;
--		(iii) accept the responsibility to ensure that your implementation does not violate any intellectual property of any entity.
--		(iv) accept that the program is provided "as is" without warranty of any kind or assurance regarding its suitability for any particular purpose;
--		(v) send an email to rajesh.panicker@ieee.org briefly mentioning its use (except when used for the course EE4218 at the National University of Singapore);
--		(vi) retain this notice in this file or any files derived from this.
----------------------------------------------------------------------------------
*/

//#include "ap_axi_sdata.h" // ap_axis can also be used, but it will include all sideband signals which we don't need
#include "hls_stream.h"
#include "ap_int.h"

// Creating a custom structure which includes the data word and TLAST signal.
// ACLK, ARESETN, TREADY, TDATA, TVALID are essential signals for AXIS.
// TLAST is a sideband signal which is optional in AXIS.
// However, it is necessary for us since we connecting M_AXIS to AXI Stream FIFO / AXI DMA.
// So, we create a struct with data (TDATA) and last (TLAST). The rest of the essential AXIS signals are automatically dealt with by the HLS tool.

//#define NUMBER_OF_INPUT_WORDS 4  // length of an input vector
#define NUMBER_OF_OUTPUT_WORDS 1  // length of an input vector
#define INPUT_LAYER 93
#define H1 512
#define H2 256
#define H3  64
#define OUT  5



struct AXIS_wLAST{
	int data;
	bool last;
};


void mlp_myip(hls::stream<AXIS_wLAST>& S_AXIS, hls::stream<AXIS_wLAST>& M_AXIS){
#pragma HLS INTERFACE ap_ctrl_none port=return
#pragma HLS INTERFACE axis port=S_AXIS
#pragma HLS INTERFACE axis port=M_AXIS

	int w1[H1 * INPUT_LAYER] = {2, -60, 78, 103, 7, 17, -54, 57, 69, 101, 29, 101, -60, -90, 57, 64, 28, -60, -42, -3, 87, -49, -44, -11, 25, -1, -34, -66, -7, -98, -13, 86, 27, 72, -97, 44, -43, -89, 93, 100, 50, 91, 0, 19, -68, -50, 9, 32, -94, 28, 79, 53, -20, -76, -101, 40, -84, 68, -37, 50, -21, -10, -88, 65, 10, -83, 76, 38, -24, 22, -5, -75, 16, -103, 92, 31, -53, -39, 35, -62, 0, 71, 8, 72, -23, 75, -90, 59, -101, -93, -75, -64, 7, -33, -63, 37, -37, -19, 2, 43, -88, -69, 62, -31, 18, 36, 32, 93, 60, -95, -97, -1, -55, -97, 78, -72, -78, 22, -90, 81, 50, 2, 4, -4, -79, -65, 20, 50, 28, -65, -14, 38, 25, -73, -15, -2, 52, -68, 54, 96, 53, 27, -14, -78, -79, -99, -62, -82, -70, -65, 23, 98, -92, 60, -85, -90, 69, 11, -12, 25, 90, 35, 70, -75, -24, 26, -27, -7, -7, 35, 80, -4, 61, -31, 81, -83, -58, -86, -70, -75, 67, 12, 88, -93, 20, -71, 60, 12, -98, -12, 32, -44, 101, 16, 4, 25, -49, 60, 28, -35, 11, 80, -67, 67, 88, -53, -95, -26, -87, -3, 96, -16, -57, 9, 13, 96, 6, 30, 103, 78, -54, 52, 49, -9, 30, 9, 53, 96, 83, -31, -33, -61, -24, -90, -43, 26, -37, 36, 94, 86, 34, 2, 91, -19, 98, 31, -3, 6, -40, 72, 98, -63, 73, -91, -61, -70, 37, 43, 94, 43, 28, -49, 83, 60, 29, 80, -9, -47, -70, -5, -11, 49, 13, -57, -52, 90, 42, -18, -75, -62, -59, 78, 68, -91, -8, 95, 98, -62, 60, 66, -15, -85, -90, 89, -38, -96, -77, 44, -47, 5, 99, 49, 40, -74, 91, 104, 31, -21, -9, 15, 21, -84, -17, 51, 28, 9, -89, 36, -58, -35, 101, -78, 97, -17, 20, 93, 30, -95, -106, -105, -25, 31, 21, 93, -28, 22, -2, 3, 93, -81, -54, -85, 57, -4, 77, 4, 21, 89, 63, 87, -9, 99, 101, 36, -2, 88, 42, -23, -31, 5, 42, -75, -65, -12, 18, 12, 3, 61, 64, -93, 39, 100, 23, -8, 45, 53, -99, 69, 89, -51, 103, 94, -95, -83, 18, -25, 68, -1, 16, -27, -65, 88, -101, -56, -52, 78, -79, 13, 40, 4, -78, 10, 11, 82, 37, 100, 99, 98, 53, 13, 42, -40, 31, -24, -34, -9, 59, 44, -75, -53, -86, -52, -24, -37, -70, 64, 93, -78, 70, 3, 86, -97, -38, 29, -80, 71, -29, -9, -53, 89, 54, -44, -23, 39, 32, -73, -75, -87, 6, -50, 70, -88, -76, 57, -38, -91, 12, 18, -76, 37, -56, -16, -31, -18, 42, -38, 82, 89, -48, 20, -103, -32, -30, -86, -38, -2, 78, 52, -17, 35, 53, 22, 19, 61, 64, 21, 99, -76, 53, 37, 13, -38, -45, -53, 95, -13, 8, -73, -44, 104, 26, -88, 67, -27, -20, -76, -78, -84, -18, -30, -46, 59, -36, -17, -87, 1, 13, -17, -59, 89, 35, 32, 8, 85, 35, -52, -54, -40, 71, -4, 47, 78, 21, -5, -16, 27, -85, 6, -8, -17, -99, -69, 28, 54, 34, -79, -100, 4, -61, 73, 85, -10, -103, 9, 71, 42, 66, 69, -40, 61, 17, 30, 86, -29, -67, 92, 21, 50, 48, 33, 92, 51, -99, -44, -16, -4, 60, -52, 77, 50, -29, -29, -5, -75, 58, -74, -45, -42, 71, -53, -46, 102, -88, 96, 102, 5, 6, 14, 10, -22, -80, -79, 72, 16, 47, 73, 67, 65, -87, -45, -23, 71, 103, -88, -51, -76, -36, 52, 34, -24, 34, 92, -58, -93, -40, -71, -81, 40, 94, -17, -83, -52, 40, -66, -30, -21, 54, 20, -81, -14, 5, -35, -2, 5, -12, 30, -73, -92, -99, 41, -42, 26, 21, -50, 77, -20, -27, 81, -83, 17, -30, 47, -20, 95, 76, 59, -33, 52, 29, 78, -31, -70, 91, 86, -34, -19, -36, -32, 24, -46, -91, -18, 35, 22, 18, -70, 44, 2, -90, 50, 83, 74, 54, -63, 18, -76, 75, 94, 29, -68, 84, -32, 66, -65, 43, -94, 26, -22, -29, 49, -58, -7, -2, -10, 79, -92, -58, -57, -56, 62, -63, -83, 68, -55, -16, 30, 52, -46, -47, -72, -7, -44, 47, -100, 78, 48, 65, -88, 64, 66, -104, 66, 65, 29, -67, 13, 10, 17, -25, 24, 37, 85, -103, 27, 40, 82, -24, 43, -78, 104, -95, 83, -11, -58, -77, 34, -28, -3, -8, -98, 86, 33, 24, 67, 44, -5, -23, 10, 8, -50, 70, 0, 85, -80, -87, -47, -65, 56, 46, 71, -24, -29, 72, 90, 77, 31, -27, 53, -62, 22, -93, -41, 86, 80, 52, 47, 14, -63, 27, 51, 19, 100, -2, -73, 7, 6, -37, -26, -57, -30, 0, -3, 101, -20, 90, 23, -76, 66, 99, -57, 88, 2, -101, 57, 13, -40, 72, -67, 72, 81, -22, -58, 71, 43, -90, -66, -19, 55, 1, -7, 59, 59, -21, -86, -51, 90, -49, 49, -92, -100, -20, -62, -54, -74, -84, -100, -57, 35, 77, -48, 93, 19, -85, 93, 101, -50, -1, -92, 101, 104, -73, 76, 9, 49, -27, 18, 44, -40, 60, -59, -76, -98, 79, 93, -81, 81, -72, 36, 60, -25, -32, 14, 43, 21, 90, -35, 5, 97, -59, -84, -3, 88, 62, -21, 51, -49, -81, 27, 101, -59, -12, 33, 53, 9, 73, -86, 87, 63, 28, -6, -62, -42, 24, 83, 72, 55, -15, 61, 83, -40, 30, -95, -5, -24, -15, 83, 45, 41, 11, 76, 100, -88, 74, 14, 7, -77, 48, -54, 84, 95, -66, 29, -47, 9, 37, 23, 24, -67, -8, 51, 88, -85, -90, 63, 67, -59, -102, 78, -22, -38, -93, -71, -34, -63, -10, 40, -78, -3, -39, 65, -33, 92, -11, -77, -1, 36, -32, -9, 18, -43, -24, 59, -40, -54, 69, 0, 41, 80, -94, -80, 32, -78, 47, -22, 55, -14, -49, -63, 87, -28, -98, -60, -38, -103, -14, -79, 86, -79, 65, -13, 101, 77, -51, -10, -63, 18, -45, -32, 21, 56, 2, -44, 98, -69, -36, -81, -42, -92, -81, -55, -24, -65, -59, -47, -60, 7, -7, 3, 27, -52, -65, 36, -7, -22, -70, -6, 16, -82, -35, -102, 93, 24, -77, 7, -63, 11, -77, -99, 70, -74, 93, -47, -93, 86, -41, -70, -72, -63, 30, -36, 6, -30, -84, 38, -38, 74, 49, -44, 101, 37, -39, 66, -89, -7, 76, 69, -78, -79, 24, -76, 46, -86, 89, -58, -51, 1, -75, 56, 93, -37, -47, -59, 32, -1, 26, -71, 83, 37, -96, -101, -15, 96, 4, -28, 30, 74, -92, -90, -10, -6, 102, 51, 65, -29, 27, -1, 33, 65, 80, 59, -12, -50, 59, -3, 58, -48, -45, 95, -66, 41, 74, 13, 76, 58, 93, -56, -45, -95, -56, -98, 61, -44, -60, 27, 28, -73, -86, -19, -92, 21, -28, 95, -11, 18, -87, -47, 19, 30, 92, -34, 14, 25, 23, -30, 85, 77, 36, 13, 88, 95, -8, 95, 24, 39, 64, -92, 77, 34, -16, -26, -21, -8, -32, 46, -93, 76, 31, 100, 26, -74, -32, -37, -78, -70, 89, 19, -7, 56, 42, 8, 40, -62, -38, -45, 63, 33, 53, -66, -95, 58, -91, 10, -19, -48, -16, 84, -22, 19, -77, 58, 71, -61, 88, 80, 0, -54, -20, 25, -2, -53, 9, -41, 75, 50, 49, -29, 32, -11, 11, -40, -23, -5, -82, -36, -38, 17, 103, -11, 55, -9, 78, -18, -74, 29, -5, -24, -98, 41, 88, -19, 67, -15, 15, 87, 102, -82, 3, -70, -79, -70, 44, -19, -40, -95, 87, 89, 6, -17, 59, 64, 90, 64, 83, 53, -40, 20, -10, 84, 25, 75, -39, -17, 6, -89, 41, 28, 10, -37, 60, -15, 49, -76, -36, 95, -9, -83, -17, 60, -99, -86, 18, -95, -27, -64, 85, 69, 77, -20, -14, -73, -35, -52, 98, 82, -55, -66, 30, -83, 94, -59, -69, 1, -68, -54, -60, 23, 25, 91, -4, -93, -84, -18, -44, -93, 70, 41, -65, -31, -95, -86, -34, 51, 37, -61, 103, -32, -103, 61, 22, 75, -90, 69, 78, 76, -69, -92, 16, 84, 83, -25, 34, -10, 82, -6, 63, -11, 93, 61, -89, 36, 102, 85, 67, 3, 82, -73, 23, -28, 80, -7, -31, 15, -102, 49, -84, -10, -83, -57, 88, 68, -81, -94, -67, 55, -86, 43, 33, 84, -89, 71, -25, -84, -75, -48, 5, 74, -63, 1, 28, -5, 12, -15, 3, 56, -80, 73, 89, -103, 30, -97, 43, 103, 54, 73, 69, 39, -63, -77, 97, 34, -50, 40, -85, 57, 94, 46, 42, 103, -66, 60, -29, -100, -69, 95, 54, 43, 71, 6, -87, 23, -83, 46, 91, -57, 73, -2, -62, 93, -38, 12, -17, 62, 7, -10, 55, -87, 69, -24, 48, 40, -98, 27, 99, -75, 54, 98, -40, 64, -38, -53, -104, 61, -46, 44, -83, -73, 68, 66, 94, -8, 102, -75, -3, -33, -28, 18, -9, -46, 87, 46, 46, -22, -56, -3, 81, -88, 26, -42, -41, 53, -29, -84, -31, 10, -29, 102, -91, -66, -77, 27, -95, -101, 51, 17, 66, 43, 53, -66, -29, 79, 56, 11, -20, -98, -69, -43, -17, 76, -28, 38, 13, -81, 50, -55, 68, 81, -51, 31, -56, -74, -36, 60, 102, -38, 94, -67, -30, -17, -15, -53, 49, -18, -66, 8, 21, 8, 8, 77, 4, 70, 21, 30, -49, -78, -97, 70, 92, 99, 43, 24, 75, 49, 83, 86, 86, 25, 14, -36, 87, -84, 25, -13, 48, 11, 74, -79, -93, 73, 40, -82, 28, 99, 0, 73, 63, 22, 56, 101, 56, 53, 48, -14, 25, -64, 62, -38, 97, 47, 41, -78, -40, -29, 7, -77, 25, -102, -69, 86, -16, 36, -88, -81, -53, 51, -66, -56, -5, 79, -37, 26, 18, 61, -44, 32, -14, 101, 53, 53, 58, -86, -100, -53, -82, -42, 14, -9, -66, -77, -10, -83, 61, -3, 72, 68, -20, -82, -9, -40, -78, 18, 1, 29, -15, 51, 101, 34, 30, 60, -1, -6, 74, 72, 23, -64, -83, 1, -76, 101, 16, -27, 83, -60, 48, -38, -28, -76, -92, -34, -83, 103, 34, 29, -71, 32, 71, -9, 1, 92, -90, 54, 59, 69, 56, -36, -63, 52, -31, -74, -55, 48, 3, -13, 56, 57, 6, -46, 13, 15, 8, 76, 22, 44, 81, -64, 1, 23, -64, -37, -100, -95, 72, -93, 63, -70, 96, -4, 21, 84, -87, -83, -42, 9, 103, 27, -88, -84, -93, 99, 53, 70, -80, 23, -7, 2, 41, -1, -51, 46, 91, -73, -79, 55, 6, -100, -55, -102, -11, 59, 91, -6, 37, 26, -64, 33, -24, -70, 71, 95, 56, 24, -18, 15, 39, -44, 91, -68, -27, 71, 82, 25, 20, 4, 87, 101, 48, 18, -49, 41, -29, -76, -35, 71, 57, 14, 69, 9, -29, -46, 73, 51, 47, 95, -103, -63, 69, -26, -19, 26, -28, 27, -85, -58, -58, 83, -15, -47, 40, 34, 57, -23, -67, 85, 21, -39, 56, 58, 40, 24, -85, 49, -49, -17, 20, 59, -39, -86, -77, -101, -5, -97, 40, 91, 38, -79, 35, 0, 75, -23, -50, -53, 30, 8, 35, -45, 31, 91, 61, -65, 87, 4, -24, 30, 87, 62, 40, 32, -55, 41, 85, -71, -16, 10, -15, 26, 30, 59, -50, -10, -47, 99, 14, 90, -82, -7, 28, -97, -17, 1, -68, 54, 55, -47, 65, -2, 52, -14, -1, -56, 59, -13, 84, -68, 71, 20, -67, -19, 57, -80, -46, -62, -94, -24, -35, -17, -55, -48, 10, -91, 50, -9, 38, -67, 82, 66, -45, -29, -101, -94, 38, -56, -62, 77, 63, -64, -87, -9, -20, -97, 72, -63, 83, 43, -64, 25, -21, 55, -66, -14, -49, 98, 5, 44, -47, -100, 78, -50, 16, 76, 49, 52, -18, 48, 11, -13, -95, -46, 34, 67, 70, 67, -33, 68, -55, 10, 43, -74, -52, 73, 42, -60, -94, -62, 2, 9, -54, 61, -65, -75, 54, -24, 104, 21, -11, 7, 79, 45, -19, -89, 5, -1, -69, 20, 88, -59, -50, 76, -62, 14, 24, 36, -14, 65, -102, 70, 19, 14, -75, 3, 49, 78, -83, 36, -11, -42, -92, -102, -8, -41, -102, 6, 69, -84, -9, -87, -97, 48, 93, -82, -99, 73, 16, -71, -58, 24, -37, -90, -81, -25, -29, 71, 3, 16, 32, 78, 36, 75, 12, -41, 18, -4, 94, -80, -82, -68, 56, -13, -36, -101, 82, 8, -77, -28, -55, 2, 72, -98, -18, -73, 65, -57, -85, 89, 73, 86, -17, 77, -16, 40, 62, 8, -66, -64, 13, 78, -50, -48, -87, -50, -85, 97, 88, -54, 40, 59, 74, 9, 30, -58, -32, -36, -79, -15, 38, 10, 98, -40, -105, -25, -76, -98, -50, 80, 19, 13, -82, 17, -50, -57, 61, -61, 95, -4, -79, -20, -100, 31, 29, 3, -63, 98, -39, 1, 74, -44, 67, 91, 92, -29, 91, 95, 87, 48, 21, 47, -31, -62, -11, 40, -101, -70, 0, -98, 62, 14, 83, 90, -34, 41, 58, 91, 31, 38, -12, 56, 14, -73, 96, -4, 34, -5, -3, -52, -2, 2, -13, 16, 91, -40, -66, -75, 86, 87, 4, -32, -37, 88, 29, 54, 21, -6, 35, 78, 20, -78, 9, 25, 55, -59, -36, 15, 55, -29, 67, -70, -77, 91, 47, -62, -53, -5, -92, -53, -7, 44, -14, -55, -44, 17, 66, 76, -85, 9, 72, 25, -18, 87, -57, 40, 89, 15, -43, 8, -39, -53, 92, -4, -2, -78, -18, 13, -103, -51, 37, 44, -85, -78, 45, 61, 95, 85, -63, -53, 47, 59, 47, 69, 97, 29, -79, -89, 94, -85, -46, 0, 93, 3, 28, 5, -88, -28, 0, -37, -20, -57, 15, 32, 83, 62, -48, -102, 54, -72, 24, 100, -71, 15, 64, 69, 31, 26, -85, 18, -14, -26, 85, -49, 53, -45, -63, -14, 58, -63, -83, 49, 47, 0, 72, -74, 37, -41, 28, -81, -69, 1, -45, 61, -28, -93, 53, 20, -34, 78, -79, -69, 41, 64, -31, 48, -52, -77, -81, -69, -86, 21, -36, 101, 102, 11, -33, -6, -78, 35, -75, 53, 100, 61, -81, 16, -81, -49, 35, 25, -53, -68, -91, -62, 75, -58, 55, -47, -86, -35, 46, 35, 8, -11, -96, 54, 75, -33, -59, -78, 17, -64, 34, -72, 68, 63, -13, 15, -14, -47, -97, 97, -45, 98, -91, -54, -71, -38, -76, 56, 49, -52, -39, 3, 96, 58, 42, -65, 49, -3, 8, 76, -7, 0, 64, -6, -52, -16, -72, -26, 25, 81, 85, 53, 18, -75, 88, 18, -29, -70, 81, -85, -8, 41, 89, 13, 19, 75, 97, -44, -27, 74, 48, -96, 78, -85, -4, 88, 8, 49, 4, -86, 2, -100, -51, 89, -49, 78, -86, -30, -46, 51, -38, -57, -33, -25, -62, -76, 20, 49, -3, -97, 1, -60, 50, -82, -84, -38, -85, 19, 27, -46, 98, -59, -63, 10, -59, 9, -79, 38, -61, 87, -87, 55, -31, -26, 22, 38, -47, 3, -35, -96, -95, 21, 83, -68, 92, 19, -42, -19, -60, 1, -29, 12, 55, 44, 36, 62, 25, 0, -45, 20, -60, 3, 86, -91, 77, -59, -51, 9, 88, 7, 47, -54, -3, -58, -55, -95, -52, 0, 36, -53, 63, -91, 101, 79, -96, 49, 29, -2, -4, -27, 40, 49, 63, 87, 99, 9, 38, -66, -73, 65, -32, -67, -97, -18, 14, 99, -51, -92, -80, 15, 99, -17, -82, -83, -79, 38, -39, -53, -92, 23, 51, 97, 98, -100, -49, -37, -16, -39, 38, -2, 71, 10, -100, -88, 7, 49, 55, 11, -83, 63, -96, -94, -4, 64, -15, 5, 45, -34, 19, 57, -5, 104, 69, -103, 48, -53, -37, 78, 50, -65, -86, 62, 20, 60, -66, -62, 94, -30, 40, -11, 66, -36, 98, -64, 64, -3, -75, -87, -16, -70, -103, -66, -72, -102, 58, 45, 12, -5, -12, 102, 41, 6, -42, 85, -63, -74, 81, -33, 89, 92, -33, 80, -103, 44, -27, 31, -67, -32, 22, -55, 38, -71, -101, 75, -66, -91, -75, -20, -93, 62, -59, 97, 100, 70, -28, -56, 60, -22, 56, 85, 6, -30, 99, -6, -19, 60, 56, -78, -15, -29, -79, -94, 74, 14, -28, 100, 20, 27, -38, 58, -37, -14, 99, 57, -3, 95, 68, 6, 51, 101, -58, -84, 38, -69, -17, 18, -68, -75, -101, 47, 12, -42, -34, 80, -5, -21, 2, 22, -24, 62, -102, 21, -65, -101, -22, -28, -99, 6, 75, -104, 76, -61, -49, -81, -88, 102, 8, -74, -28, 78, -103, -90, 23, 36, -72, 72, -84, -28, -101, 12, 92, 53, 3, -62, -14, 27, -79, 14, -8, -90, -43, -63, 103, -95, -90, -30, 47, -16, 34, 94, -77, 85, -57, 35, -32, 28, -2, 62, 40, -30, 61, 89, 39, -60, -67, -75, 79, -63, -46, 24, -36, -90, 3, 39, -58, 14, -18, 92, 55, 56, -34, 41, -36, -78, -3, 90, 59, -23, 92, -2, -5, 44, 11, -102, -78, 1, 14, -64, -19, 23, -47, -60, 38, 96, -32, 85, 60, -75, -84, -24, -101, 15, 52, 8, -11, 58, -68, 37, 26, -10, 1, 30, -102, 29, 73, -93, -61, 28, 7, -6, -92, -71, -42, 69, -54, 36, 84, 32, -83, 86, 57, 69, -99, -85, -17, -89, 92, -104, 19, 6, -77, -97, -63, 21, -14, -72, -55, -81, 56, 71, 73, -82, 93, 15, 14, -9, 12, -72, 80, -96, 72, 9, -56, 61, -27, 95, 80, 55, 2, 6, -51, -16, 71, -100, -28, -84, -73, -95, 8, 31, 77, -78, 27, 24, 60, 55, -75, -74, 41, -51, -74, -1, 97, -58, -44, 39, 40, -43, 42, -98, -87, 45, 8, -85, 22, -52, -36, 96, 99, -75, -21, 3, 97, -44, 61, -68, -93, -67, 98, -54, 41, 96, 72, -44, -14, -91, 25, -17, 41, 84, 67, 79, -29, -27, -47, 29, 35, -86, 17, -47, -38, 81, 71, -26, -57, 50, -97, 92, -42, -62, -39, -82, -45, -13, 7, 4, 0, 83, 101, 52, -15, -95, -10, 25, -100, -39, -57, -59, 52, 88, -59, -45, -18, 18, -34, -30, -66, 6, -17, 30, -57, 68, -2, 71, 13, -15, -54, -73, -75, -36, -64, -31, -50, -103, -83, 62, 36, 34, -97, -37, -8, 54, 44, 85, 23, -53, 67, -47, -71, -46, 95, 34, -65, 91, 42, -14, -36, 87, 61, -3, 74, 13, -63, 44, -68, -23, -101, -1, 88, -9, -102, 50, -64, 14, 71, -41, -95, -83, 37, 73, 83, 54, -15, 45, 1, 50, -3, -32, 52, -44, -79, 14, -63, 62, -68, 96, 32, 99, -80, 99, -60, 28, -67, 57, -93, 47, 28, -75, 99, 57, -73, -84, -26, 37, 50, -4, 62, 64, 8, 46, -35, 70, -19, 66, 7, -7, 83, 49, -86, 90, -78, 100, -48, -68, -38, 39, 15, 77, -36, 94, 80, 87, 96, -3, -2, -28, -50, 30, -76, -75, -13, 0, -46, 81, -77, -81, 55, -15, -100, -77, -60, 96, 74, -9, 39, 28, -11, -82, -49, 97, 46, -9, 87, 15, 92, 69, -14, 16, 42, 29, -6, 47, 4, 32, 7, 86, -67, 10, 101, 35, 86, 31, 74, 33, -103, -99, -102, -54, 82, 46, -71, -34, 28, 98, -33, -34, -38, 65, -36, -40, -18, -80, -14, 89, 47, -15, -55, -93, -29, -18, 59, 39, 77, 25, 71, -58, 23, -74, 93, 26, -6, 43, 80, -22, 68, 91, -1, -11, -47, -74, -69, 30, -97, -90, -70, -62, -64, 78, 82, -56, 71, -36, 8, 42, 58, 96, -7, -77, 32, -99, 45, -87, -53, 83, 87, 13, -65, -96, 84, -90, -84, 98, 64, 56, -26, 67, -60, 100, -71, -7, 37, -87, 85, 56, -19, -5, 95, -57, 11, 36, 37, -65, -13, 37, -49, 31, 44, 69, -36, 94, -51, 0, 50, 10, 77, 22, 58, 87, -62, -54, 39, -43, 34, 47, -24, 35, -98, -58, -12, -90, -20, 40, 3, 14, 102, -94, -90, -50, 65, -102, 24, 3, -23, -35, 23, 21, 16, -37, 89, -28, 47, -57, -30, -98, 58, 3, 28, 20, 4, 63, -77, -70, 29, 102, 77, -4, 92, 30, 78, -42, -78, 52, -14, 18, -21, 53, -94, -23, -70, -12, 86, -98, -9, 93, -95, -62, 37, -95, 71, 72, 90, -2, 54, 67, -68, 61, -44, 15, -80, 97, 100, 84, -9, -47, 53, 38, 2, -56, -13, 57, 10, -84, -42, 65, -33, -63, 38, 22, 76, 90, 97, 89, 35, -61, 45, 91, -40, -83, -62, 38, -48, -86, -44, 53, -46, 31, 69, -80, 92, 6, -49, 60, -20, -47, 10, -27, 82, -48, 0, -5, 88, 33, -38, -83, -93, -88, -57, -86, 57, -14, -78, 59, -1, 100, 93, 4, -56, -55, -16, 29, -91, 97, -8, 40, -95, -68, 79, 88, -62, 3, -26, -65, 43, 99, -74, -43, 20, 31, 20, 17, 97, -31, 12, -31, -42, 63, -85, -67, -97, -87, 67, -38, 57, 88, 10, 56, 48, 85, 5, -76, -32, 30, 90, 45, 68, -82, 15, 37, 68, -95, 42, -80, -75, 15, -9, -82, -65, -52, 53, 73, 88, -55, -9, -36, -54, 81, 40, -11, -70, 102, -97, -67, 24, -9, -79, 38, 4, 8, -87, -94, 78, -5, 45, 21, 49, 77, -97, -76, -37, -98, 29, -92, -6, 77, 42, 7, 26, 19, -29, 68, 63, 49, -44, -80, -7, 61, -26, -35, -82, 58, -25, -75, -39, 72, 27, -22, 75, -64, -39, -89, 35, -11, -73, 3, -25, -81, -49, 89, -54, 2, 23, 94, -21, 22, -86, -13, 27, -88, 102, -90, -65, -72, 80, 13, 80, -38, 97, -90, 47, -28, 8, -90, -19, -102, -28, -3, 2, 82, 94, -27, 35, 76, 55, -83, -30, -20, -52, -35, 27, -73, 89, 101, 57, -37, 102, 39, -82, 44, 61, -80, -77, 8, 19, 18, -16, -31, -49, 34, -77, -8, -65, -80, -12, 91, -16, -67, -58, -77, -95, 2, 54, 22, -46, -72, -53, -102, 43, 6, -37, -64, -92, 69, 8, 70, 28, 35, -26, 74, -98, -28, -80, -53, 6, -84, -8, -57, 30, -79, 61, -17, -22, -67, -24, -103, 67, 64, 67, -71, -40, -4, -5, -52, -54, 96, -60, -71, 93, -64, 81, 31, -95, -86, 32, 85, 13, 28, -38, 45, -93, 1, 25, 92, 15, 9, -71, 44, -61, -87, -79, -76, 40, 15, 57, -90, 42, -96, -76, 100, -31, 51, 0, -26, -97, -19, -81, 79, -10, -55, 38, 2, -51, -9, -41, 15, -79, 19, 39, -97, -23, -101, 75, 83, 10, 87, -61, 98, -48, 56, -35, -26, 45, 13, -50, -11, -85, -12, -40, -76, 61, -35, 29, -17, 76, 77, -32, 87, -51, 29, 81, -83, -75, -4, 5, 23, 45, -1, -57, -15, 19, -99, 101, 55, 13, -67, -52, -76, -9, -76, -87, -99, 37, -62, -34, -12, 78, -93, -52, -97, -49, -68, 52, -33, -70, 82, -92, 39, 28, 2, -63, 26, -51, 31, -4, -79, 25, -23, -16, -35, -13, 63, 6, 3, -92, -46, 89, -90, 49, 76, 24, -66, 84, -74, 3, -59, 6, 77, 93, 42, -6, -86, -13, 35, 93, 40, 67, -52, -67, -71, 68, 9, -17, 55, -64, 0, 7, 59, 78, -101, -74, -47, -58, -6, -77, 57, -51, 13, -86, -54, 83, 11, -40, -60, -31, 100, 30, 103, 59, -92, -12, -68, -61, 29, 87, 10, -30, 38, 1, 86, 76, -77, -19, 23, 87, -59, 23, 49, -56, 1, 83, 69, -8, -16, 20, 88, 33, 93, -35, -46, -61, 85, 60, -89, -62, -72, 66, -62, -39, 3, -20, 44, 77, 16, -94, 48, 68, 63, 75, 82, 6, 7, 46, 66, -11, 55, -86, 59, -95, 89, 37, -15, 63, -81, -98, 57, -76, 79, -47, 88, -46, -18, 20, 42, -49, 100, 27, 35, 51, 22, 101, 83, 38, -17, 97, 11, 10, -101, 13, 40, -52, 6, -27, -58, -88, 13, 92, 103, 31, 0, -69, 61, -69, 48, -93, -4, -80, 9, 8, 102, 33, -84, -6, -37, 23, -22, 41, -24, -75, -101, -63, -65, 3, -47, -64, -60, 69, 33, 13, 69, 9, 63, -59, -92, 65, -39, 36, -23, -78, -90, -55, -50, -24, -100, -72, 35, 16, 52, 6, 98, 6, -57, -52, 3, -49, -23, -11, -48, 21, 83, -103, -49, 24, 98, 91, 40, -24, 63, -69, -90, 14, 66, 44, -32, -57, -40, -13, 95, -63, 49, -18, 36, -54, -72, -100, -85, 7, -58, -2, -22, 32, -39, 54, -98, 13, -65, -26, 74, -10, 61, -69, 24, -87, -85, -98, -18, 90, 3, 28, -64, 49, 61, -93, -52, 24, 17, 86, 79, -38, -48, 61, -66, -40, 30, -85, 92, 46, 77, -57, -44, 97, 35, -86, -94, -12, -86, -11, 5, -17, -44, -2, 39, -51, 91, 63, -2, 14, 39, -50, 1, -85, -7, 95, -12, 67, -16, 20, -98, -28, 68, 91, 71, 90, -78, -21, -75, 33, 42, 59, -67, -22, 88, -46, 18, -87, -64, -101, -46, -76, -68, -53, -35, -48, 13, 23, 25, -64, -17, -11, 30, -74, 100, 98, -85, 29, -21, 50, -26, 96, -8, 29, 24, -53, -13, 3, -8, -101, -37, 93, 4, 95, -100, 93, 70, 83, 63, -60, -63, -48, -13, -87, 26, -42, 93, 70, -28, 0, -58, 95, -93, 30, 6, -85, 36, -40, -75, -88, -80, 27, 65, -89, 20, -17, -99, -49, 32, 14, -48, 44, 29, -56, -57, 56, -91, 27, -100, -25, 50, -62, -88, 39, 45, 71, 22, -4, -64, 66, -12, -88, -100, -62, -42, -41, 73, 32, -49, -41, 60, 58, -90, -46, 78, 97, -13, 51, -35, 95, -45, -72, -99, -83, -66, -26, 54, -76, -94, -60, -56, -21, 8, 2, -90, -79, -65, -85, 47, -95, 103, 14, 77, -86, -21, -47, -79, -28, 22, 7, 29, -46, -14, 13, 87, 41, 73, -95, -89, 25, 102, -12, -25, -87, 55, -45, -30, -70, -72, -3, -94, 95, 11, -77, -80, -94, -94, 25, 62, -100, 10, 69, 11, -103, 64, -92, 9, -65, 25, 2, -79, 100, -12, 49, -67, -5, 19, 32, 56, -81, 78, 20, -55, 94, 72, -16, -60, -77, 33, 101, -29, -84, -39, 37, -68, -96, 19, -88, -8, -14, -79, 12, -55, -70, -67, 13, -53, 80, 6, 86, 17, 84, 64, 27, -84, -101, 20, 57, -52, 21, -16, 21, 27, -45, -73, 42, -53, -98, 48, -16, -26, 30, -47, -25, 73, -58, 89, -74, 13, -42, 42, -30, -18, 86, 30, -28, -48, 91, 49, 81, -90, -5, 76, 46, 24, -81, 69, 72, -63, 81, 60, -72, -52, -87, -70, 92, -45, 80, -45, 17, 45, -71, 100, -16, -6, 39, -21, 46, -79, 41, -68, 64, 97, -51, -71, 94, -31, -96, 79, -14, -91, -64, -81, 60, 89, 22, 79, 7, 33, -48, -85, 95, -5, -37, 87, 33, -28, -104, 32, 9, -30, -93, -4, -41, -51, -60, -80, -102, -99, -4, 31, 2, -43, 32, 7, -99, 7, -52, 73, 4, 70, 11, -49, 7, -87, 30, 51, -18, -4, -76, -56, 18, -35, -69, 65, 62, 6, 20, 76, 37, -11, 20, 48, -85, -21, 102, 57, -98, -86, -28, -57, -9, -24, -64, 62, 55, 71, 38, -54, 95, -93, -89, 62, -81, -9, 67, -89, 57, -87, -42, -83, -1, -62, -58, 73, -15, -50, 64, 65, -84, 15, 3, 84, -84, -4, -28, 19, -99, 51, 22, 49, -58, 48, -1, 77, -79, -18, 28, 99, 37, -87, 63, 14, 27, 9, -29, -28, 98, -98, -91, 39, 7, -4, 38, -13, -8, -95, -83, 28, 79, -18, 44, -49, -46, 23, -78, 103, -50, -16, 97, 91, -13, -8, 46, -45, -90, -12, -46, -92, -60, 79, -83, -77, -103, -21, 65, -36, -79, 27, 86, -24, -60, 24, 53, 88, 34, -17, 55, -5, -64, 92, 64, -55, -31, -63, 69, 56, -83, 54, -24, 60, 77, 9, 72, 98, -14, 38, 100, -93, 1, -85, -5, -51, -82, 32, -55, 13, 6, -4, 101, -27, -46, -91, -103, 37, -96, -19, -41, -59, -17, -44, 71, -73, 89, -19, 91, 38, 0, -27, -102, -78, -90, 10, -82, 65, -40, 47, -39, -88, 10, 75, 56, 13, -72, 39, 45, -91, -39, -99, 56, -8, -44, -29, -32, -54, 25, -55, -101, 93, 96, -74, 99, 36, 23, -16, -73, -96, -10, -70, 96, -33, 81, -45, 78, -93, 7, -75, 43, -52, -103, 104, 55, 80, -72, -5, -22, 91, 16, 30, 103, -47, -12, 45, 59, -74, -28, 77, 34, 52, 22, 47, 64, 22, -81, -75, 7, 62, 54, -67, -55, 12, 69, -56, 32, -69, -24, -14, 87, -76, -29, -65, -65, -44, -76, -40, 87, 89, -55, -99, 6, 72, 90, 7, -8, -7, 51, -84, 6, 70, -33, 51, -96, -5, 66, 77, -96, -12, -29, -55, -12, -87, -79, 60, -56, 97, -71, -28, -83, 53, -98, 85, 100, -78, 52, 87, -5, 41, 75, -48, 24, -82, -100, 22, -32, -53, 69, 22, 25, -95, -15, -11, 16, -65, 80, -76, 88, -28, 36, -20, 101, -90, -40, -41, -50, 28, 49, -19, 34, 3, 51, 52, -36, 43, -13, 83, 64, 57, -52, -13, 85, 54, -48, 40, 22, 70, 79, -98, 81, -13, -65, -103, -50, 3, 26, 34, -45, -13, -40, 61, -54, -39, 65, -95, 37, -103, -47, -8, 30, -80, 50, -88, 16, -23, 47, 8, 58, 46, 13, -25, -75, 5, -70, -100, 24, -75, 60, 67, 17, -51, 8, -13, -32, -29, 40, -27, 13, 4, -36, -102, 91, -53, 17, -60, 23, -80, 51, 87, 25, 99, -40, -58, 82, -58, 4, 34, 25, -104, -55, 7, -38, -46, 58, 2, -102, 78, -79, -47, -89, -53, -67, 73, 66, -73, 29, 9, 16, -40, -87, 89, 72, -58, 17, -62, -36, 45, 14, -74, -82, 96, -101, 41, 46, 94, -59, -7, -49, 63, -48, 96, -87, -37, -85, -2, 5, -91, -24, 42, -34, 39, 14, -33, 81, 37, 100, -63, 7, 39, 32, 93, 80, 7, 17, -77, 64, -74, 14, -36, 96, -53, 89, -28, -19, 16, 14, 18, 49, 17, 75, 98, 5, -13, -56, -87, 4, 57, 53, -99, -70, -78, 88, 63, -24, 71, 45, -17, -76, -4, -74, 52, -66, -2, -79, -84, 21, 95, -4, 94, 64, 4, 67, -6, 103, 63, 21, 99, 76, -71, 66, -77, -45, -10, 90, 61, 34, 24, -76, 42, -46, -30, -40, -18, -60, -16, 3, 76, -84, -49, 101, 28, -40, 29, 83, 32, -78, 18, -20, -6, 43, -7, -88, 46, -51, 89, -33, 48, -51, 74, 92, 44, 75, 88, -42, 72, -15, -99, 32, 27, -45, 66, 46, 95, -103, 64, -54, -25, 8, -76, 29, 41, 41, 86, -45, 48, 48, 54, 11, 66, -45, -44, 39, -24, -15, -91, -52, -93, -38, 96, -61, 27, 54, 14, -46, 70, -57, 81, -18, -85, 95, -2, -37, 78, 16, 30, 0, -37, -48, -74, 5, -64, 76, -52, -19, -87, -67, 74, 68, 1, -72, -38, 20, -18, 42, -64, -28, 32, 96, 60, 70, 60, -75, 100, -71, -22, -62, -72, 38, 104, -35, -21, 60, -55, 35, -104, -7, 87, -8, 36, -49, 59, 7, 62, 73, -86, 96, -53, 52, -68, 50, -30, -66, 71, -48, -28, -84, -1, -55, 97, 29, 6, 79, 34, 103, 41, -92, 28, -85, -42, 39, 57, -47, 62, 99, 97, -37, -30, -102, 38, 60, 39, 55, 12, 95, 85, -51, -89, -59, -21, 37, 93, 29, -17, 27, -30, -48, 60, 27, 36, -61, 102, -6, -55, -44, -82, 9, -72, 42, 21, 60, 93, 2, 67, -16, 70, -41, 59, -2, 87, 51, -4, -41, 92, -25, 28, -16, -24, -20, -63, 88, -84, -76, -37, -11, 24, 0, -63, -13, -73, 13, 57, -47, 17, -67, -16, -46, -77, -36, 81, -103, 44, 6, -80, -2, -101, 26, -60, -77, 41, 90, 72, -11, -24, -55, -91, -30, 91, -88, -76, 64, -44, 93, 38, -96, -30, -101, -46, 101, -80, -53, 35, -74, 49, -99, -78, 58, -91, -43, -38, 58, 70, -1, 67, -24, 35, -41, -26, 34, -76, 70, 68, 13, -93, 87, -50, 29, 77, -83, 24, 40, 93, 61, 26, 3, -94, 25, -35, 83, -96, 42, 5, -40, 1, -18, 11, 75, 50, -31, 81, -35, -74, -85, -93, -38, -36, 72, 53, -26, -1, 29, 39, -58, 18, -2, 0, 42, 95, 65, 85, -36, 92, 60, -77, 91, -36, -93, -79, 87, 18, 84, -86, -46, -32, 24, -77, -20, -32, -66, 40, -85, -4, 82, -36, -63, 0, -10, 51, 89, -38, -23, -73, 3, 96, -6, 63, -97, -69, -18, -73, -17, -47, 97, -16, 12, 63, 14, -20, 65, 20, -25, -78, 94, 77, -52, 64, -15, -44, -67, 43, -67, -32, -31, 7, 79, -95, 69, -7, 80, 72, 98, -92, -77, 64, -96, 68, -102, 85, -75, 67, -81, 54, 59, 25, 77, -27, -45, -31, -13, -97, 97, -20, -80, 74, -8, -88, 50, 39, 31, 19, -50, 40, 71, -33, -23, 10, 39, 91, -19, 100, -46, 31, 34, 88, 67, 70, 32, -28, 95, -59, -88, -37, 84, 54, -87, -45, -95, -94, -66, 88, -17, -64, 18, -33, 70, -15, -78, 3, 38, 82, -80, -85, -66, -52, -21, -66, -22, -96, 29, 13, -86, 2, -71, -94, 51, -71, 7, -63, 37, 41, 42, 73, 69, -59, -42, 85, 6, 92, -47, 97, 12, -32, -66, 2, -100, 64, -97, -104, 17, 91, -12, 54, 90, -56, 56, 26, -1, 53, 41, 7, -6, 97, -32, 23, 99, -85, -41, -83, 93, 65, -81, -102, 82, -32, 25, -100, -44, 72, -21, -78, 38, -86, 39, -76, 55, 84, 20, 3, 99, -88, 100, -4, 98, -33, -82, 86, 20, 2, 54, -78, 10, -22, 76, 62, -62, 32, 77, -28, -19, -40, 57, -82, -28, 102, -43, -21, 1, -53, 10, 57, -38, -33, -24, -54, 82, -2, -26, -13, 56, -61, -63, -69, 11, 8, -49, -58, -91, -31, -11, -90, 88, -42, 71, -50, 63, 77, 60, 26, 68, 11, -20, -47, -83, 24, -46, -83, -60, 38, -43, -34, -62, 11, 98, 43, -51, 57, -73, 72, 31, -24, 1, 58, -23, 84, -11, 19, -95, -47, 88, 91, -9, -34, 49, -24, 7, 14, 89, 46, -96, 14, 34, -77, 47, 72, -33, -48, -91, 65, -12, -96, 65, 76, 51, -74, -60, 40, -53, -34, 30, -93, 26, 19, -64, -1, -16, 25, -7, 14, -78, -66, 62, -74, -2, 5, 101, 56, 6, 43, -7, -68, -37, -7, 16, 30, 20, 37, 54, 101, 29, -66, -76, 33, -96, 33, -31, -41, -91, 15, -57, 30, -85, 5, -41, 92, -102, 18, -65, -57, -4, -73, 15, 43, -88, -7, -53, -12, -23, 59, -55, -54, -30, -33, -39, 61, -64, 52, -11, -29, -18, 51, -46, -72, -100, -57, 66, -41, 54, 57, 65, -52, 39, -37, -6, 94, 43, 33, 58, 23, 76, 27, 98, 97, -88, 84, -52, 46, -41, 97, 34, 68, 26, 63, 49, -10, 28, -75, -13, -90, 52, -76, -103, 32, -42, 76, -30, 73, -19, 66, -24, -94, 72, -28, -20, -61, -26, 87, -91, 78, -2, 29, -28, -57, -3, 58, -30, 23, -32, 98, -74, 42, 23, -50, -68, 84, -63, 22, -25, -80, -61, -58, -93, 47, -48, -44, -63, -94, 40, 80, 61, -74, 67, 6, 45, -83, 14, -101, 94, -24, 88, -27, 37, -53, 101, 99, 4, 14, 16, 83, 86, -42, -9, -102, 63, -2, -66, 64, -11, -13, 44, 16, 57, 50, 48, -26, 9, -57, -86, -40, -46, 44, -52, 44, -19, -57, -62, -83, 21, 3, 102, 71, 62, 28, 102, -73, -45, 54, -10, 97, 49, -63, 22, 103, -68, -67, -7, -51, 83, 76, -97, -90, -3, -27, 12, -95, 47, 36, -75, 95, -42, -73, 9, -5, 11, 92, 89, -66, 66, -57, 14, 82, 94, 64, -83, -41, 49, 82, -1, -7, 28, 86, -50, -12, -62, 7, 42, -4, -96, 35, -6, 9, 76, 18, 51, -25, -76, 62, -38, 90, 31, -26, -56, -53, -24, -61, 90, -71, -4, 49, 26, 8, -100, 36, 13, 30, 2, -94, -91, 1, -31, 8, -96, -93, 35, 28, -59, -3, -79, 69, -49, 95, -55, -19, 8, -99, 7, 19, -99, 41, -53, -85, -55, -81, 65, 95, 73, 94, -51, -97, 89, 83, 67, 18, -60, 75, -34, 35, -81, 50, -89, -21, -56, -3, -6, 24, 11, 4, 91, 10, 5, 99, -60, -36, 88, 59, 87, -46, -31, -64, -21, -17, 44, -56, -22, -82, -103, -43, -57, 27, -12, -85, 57, 79, -43, 60, -31, 51, 80, 69, -98, 35, 48, -30, 21, -31, 14, -47, -41, -28, -65, 73, 76, -2, 83, -44, 90, 45, -57, -103, 80, -77, 67, 60, -25, 41, -69, 24, 6, 49, -41, -38, -78, -81, -49, -98, 55, 83, 41, -78, -84, -69, -29, -78, -1, 97, -5, 84, -86, -54, 90, -52, 99, 23, -77, 16, 81, 82, -77, 68, -36, -59, -69, 79, 51, 94, -102, 42, -50, 37, -86, 16, 84, -45, 69, -80, -70, -93, 3, -39, 2, 68, -105, 38, 104, 53, 33, 21, -35, 32, -5, -47, 35, 87, -58, 27, -4, -4, -57, -93, 2, -62, 53, 23, -14, -79, 71, -37, -25, 20, 58, 93, 43, -71, 101, -56, 14, 57, -53, 17, 52, 74, -68, 9, -12, -100, 45, 73, -21, 16, 37, -23, -58, 45, -50, 83, 0, 21, 8, -51, -90, 36, 69, 24, -103, 5, 8, 87, 71, 90, 62, 77, -40, 93, -35, -21, -8, -61, 1, 94, 85, 67, -99, -95, -63, 47, 103, 100, 85, -38, -96, -21, 46, -13, -16, -3, 29, -43, -22, -93, -22, 15, -99, 51, -52, -74, 103, -22, -20, 23, -29, 41, -46, 20, -89, -16, 71, 19, 86, 40, -40, 100, -68, 48, -66, -36, 90, -68, -5, 20, 79, 27, 18, -40, -4, -59, 32, -15, 52, -16, -48, -70, 83, -102, 8, -94, 80, 19, 86, 91, 51, 102, -104, -11, 83, 54, 22, 35, -24, 14, 103, -43, 29, 22, -3, -75, -78, -48, 89, 92, 5, 16, 55, 91, 98, 67, 29, -35, -103, -101, -40, -70, 68, -12, 75, -20, -19, -28, 103, -63, -91, 81, -70, 103, -41, 49, -25, 85, 66, -49, -12, -56, 12, 70, -99, 35, -68, 32, -43, -76, 52, 62, 20, -76, -3, 72, -82, -75, -37, -10, 7, -33, -84, 99, 12, -97, 9, -13, -4, -69, -33, 50, 44, 78, -103, -45, -47, -63, -83, -76, 50, 65, -17, -18, 23, 48, 95, 61, 53, 14, 44, -93, -14, -70, -74, 74, 26, 98, 28, -15, 104, -83, -21, 23, -91, 11, -40, 93, 21, -76, 37, -69, -14, 62, 89, -65, 38, -34, -83, -78, -18, 68, 70, 8, -76, 61, 44, -88, -82, -58, 52, 80, -33, 92, 80, 35, 71, -29, -58, -70, 2, 71, -31, 80, -23, -79, -89, 89, -90, -104, -88, 17, -52, 32, -60, -96, -45, -96, -53, 83, 94, -37, 67, 89, 14, 17, -75, -68, 54, 23, 52, -93, 23, 1, 24, 37, 97, -49, -85, 10, -6, -3, 68, -7, 89, 54, 97, -89, -79, -64, 4, -10, -51, 71, 12, -26, -7, -84, 79, 53, 7, -30, 67, 1, 38, 61, -23, 17, 41, 94, -75, -50, 30, 21, -92, -25, -88, 51, 34, -35, -51, 75, -39, 84, 43, -46, -87, 86, -67, -75, -78, -92, -9, 51, -2, 2, -87, 92, 47, -85, -37, 18, -46, 74, 24, -88, 72, 30, 16, -48, 99, -21, 24, 82, -18, -34, -16, 67, 104, -80, -35, -93, -76, 33, -75, -52, -28, -84, -18, -50, 6, 18, -72, -96, -80, -38, 32, 58, -76, 3, 3, -64, 43, -27, 46, 65, 70, 63, -36, 14, 57, -58, -74, 67, 7, -58, -50, -5, 14, 101, 3, 53, 20, -36, 12, 14, 79, 11, 44, -32, -88, 100, -89, -89, -2, 68, -16, -103, 51, 82, 7, 87, -55, 46, 30, -95, -8, -63, 48, 48, -88, -36, 87, -73, 4, -98, -49, 92, -8, 51, -53, -23, -43, -80, -73, 24, -101, -89, -52, 75, -47, 31, 53, -42, -100, -77, -37, -14, -41, -59, -36, 32, -35, 56, 13, 26, -101, -70, 12, 95, 55, -26, -4, 86, -41, 30, -16, -77, -54, -47, 81, -75, 62, 77, 67, -29, -82, 63, 59, -39, 73, 47, -11, 72, 65, -72, -103, -7, -71, -23, -61, 23, 55, 67, -83, -28, 8, -37, -54, 70, -1, 31, -66, 88, 26, 95, -24, -71, 92, 12, 79, -15, 13, 66, 33, 75, -70, 71, 56, 76, 94, 100, -49, -13, 47, -92, 104, 30, 48, -101, 70, 46, -61, -6, -5, -91, -11, 70, -78, -7, -42, 65, -89, -80, 89, -64, -74, -5, -21, 81, -60, 95, 35, -22, 23, -13, 66, -32, 20, -18, -74, -101, -88, -39, 54, 33, -77, 44, 47, 41, 66, 29, -74, -25, -12, 65, 80, 28, 89, 14, 22, 75, -35, -72, -87, -56, -99, 56, -61, -71, 82, 43, -79, 81, -14, -51, 33, 45, 56, 2, 23, 58, -68, 27, -13, 39, 58, 81, -42, 6, -60, 22, -100, -12, 21, 13, 39, -4, 85, -93, 40, -38, -12, 72, 15, 78, -44, 33, -2, 99, 4, 28, -9, 8, 50, 21, 77, 4, -8, 72, -86, -69, 58, -90, 18, -29, 75, -17, 78, 7, -94, 11, 14, -37, 74, -54, 25, -1, 56, 66, -26, 59, -30, 71, -20, -100, 59, 19, 82, 87, 74, -89, -72, 62, -22, -82, 59, -74, -65, 5, 100, -73, -77, -101, -22, -42, -23, 26, 11, 76, -88, -77, -13, -74, -10, 59, -95, -73, 17, 49, 94, 27, 32, 102, 36, -20, -81, 16, -28, 47, -64, -40, 24, 34, -76, 52, 59, -2, -40, -78, 21, 17, -45, -33, -86, 55, 75, 46, -58, 66, 79, -4, -97, -36, -92, 47, -23, -91, -68, -32, 39, 1, 31, -27, -82, 84, -49, 16, -46, 23, 85, -61, 8, 87, -46, 78, 22, 60, 33, 17, 66, 56, -61, 9, -104, -20, -41, 79, -63, -32, 43, -7, -11, 93, -41, 29, 67, 7, 66, -43, -48, -25, 38, 20, 49, 28, -16, 82, -101, 40, -40, 70, 48, -27, 0, 47, -16, 31, -94, -34, -7, -94, -42, -68, -102, -101, 95, -85, 93, -30, -87, 86, -10, 93, -51, -62, 45, -52, 52, 13, 43, -24, 47, -69, 49, 26, 22, 82, 13, 69, -100, -56, -17, 53, -36, 6, 15, 97, -15, -70, 95, 99, 41, 92, 51, 20, -73, -88, -54, 92, -9, -78, 71, -41, -2, -33, -45, 56, -57, 66, 90, 8, -63, -24, -9, 70, 71, 23, 23, -94, 74, 68, -68, 41, 69, -57, -35, 96, 32, -68, -80, 25, 11, -9, 87, 103, -93, 82, 2, 85, -83, 13, 78, 57, -75, -29, -92, 10, -81, -82, -59, -23, 7, 13, 91, 44, 57, 90, 52, 98, 6, 34, 45, -4, -38, -18, 15, -89, 57, 55, 1, -42, -43, -11, -98, -88, -75, -13, 18, 63, -88, 82, -65, 6, 77, 32, -36, 84, -74, -36, -3, -28, 18, 54, -51, 2, 35, 99, 23, -17, 8, 101, -101, -89, 48, -72, -29, -83, -67, 49, 50, 17, 79, -73, -42, -95, -88, -62, -36, 84, 98, 7, 15, -57, 94, -67, -100, -26, 28, -93, -52, -98, 45, 64, -38, 12, 84, -95, 53, -60, -79, 80, 9, -47, -11, -81, 23, 36, 25, 19, 3, 86, -81, 48, 72, -33, -101, -59, 96, -81, 45, 38, 40, -100, 12, -97, 74, -53, -80, -47, -59, -101, 44, 30, -74, 16, -57, -67, -51, -45, 82, 58, 1, 4, -83, -82, 55, 37, 35, 40, 4, 41, -40, -87, -90, 92, 38, 22, 28, -67, 41, 61, 60, 19, 54, -85, 53, -99, -54, -56, -50, 15, -34, -70, 26, 100, -59, -61, -8, -87, 95, -77, -21, 43, 78, -83, -72, -25, 22, 65, 26, 24, -19, 80, -2, -29, -79, 22, 102, 33, 32, -41, 81, 18, 96, 68, 34, -35, 18, -58, -47, -25, 66, -67, -93, -100, -11, -89, 75, 97, -33, 103, -77, 70, 81, 22, 56, 26, -47, -72, -28, 2, 60, -69, -54, 39, -77, -76, 100, -21, 63, 17, -55, 75, 59, -95, 46, -47, -53, 2, -83, -53, 57, 62, 100, 36, -10, -52, -79, -9, -5, -24, 93, -49, -19, -46, -39, -55, 81, -61, -99, 96, 0, -92, 91, 46, 73, 64, -22, 62, 2, -9, 98, 51, 33, 8, -19, -92, 2, 84, 82, 84, 29, -40, 84, -96, -36, 77, 50, -92, 56, 13, -99, -99, 80, -78, 97, 101, -75, -30, 38, -101, -34, -32, 59, -93, -89, -93, 97, 45, 96, -91, -16, -9, 11, -6, 57, -66, 52, -93, 52, 88, -76, -10, -88, 93, 16, -47, -19, 6, -67, -91, -2, -4, -68, 36, -35, -69, 33, -5, 23, 78, -41, 54, -3, 51, 38, 68, 0, -64, -29, 8, -91, 70, -22, -50, -66, -81, -22, 42, 25, -75, 81, -79, -97, 52, -11, 39, -34, -98, 35, -92, 73, 20, 26, -45, 95, 50, 13, -8, -18, 55, 59, 57, -91, 92, -22, 69, -100, -28, -5, -38, -100, 9, -86, 53, -84, 59, -72, 13, -66, 18, -38, 41, -93, -3, -12, 29, 45, 102, 26, 36, -30, 3, -24, -74, 75, 74, 28, -39, 75, 13, 27, -66, 23, -88, -13, 91, -69, -44, -48, 14, -46, -14, 4, -58, -57, 33, 97, -4, -18, 2, 60, 99, -61, 93, 3, 40, -44, -29, 100, -18, 64, 87, -27, -63, 61, 39, 42, 49, 65, -6, -7, -77, -85, -95, 51, -77, -2, 56, -24, 57, 104, -56, 10, 22, -5, -11, 67, -53, -71, 77, 72, -66, -31, 96, 102, -85, -45, 93, 91, 57, -88, -58, -51, 56, 80, -103, 85, -82, 86, -38, -96, 74, 91, 2, -13, 68, 104, -23, -48, -103, 88, 2, 44, 41, 6, -57, -97, -29, -94, -29, -35, -36, 30, -22, -24, 13, 83, 9, -16, 61, -25, -50, 73, 41, -34, 19, -46, -16, 44, -3, -95, -92, -3, 2, 93, -71, -47, 10, 28, -49, -77, -100, 17, 73, 5, -62, -1, 64, -55, -102, 31, 23, -94, 93, -77, -16, -68, -102, -63, 93, -38, -38, -56, -103, 95, -1, 31, -11, 69, -37, -36, -20, 99, 92, 77, -18, -69, -2, -92, -72, 88, 22, 74, 71, 10, 98, 8, -33, 33, 52, 10, -71, -33, -59, -50, 43, -60, 75, 81, -46, 69, 16, -41, 41, 74, -13, 16, 66, -13, -39, -100, -88, 22, -18, -44, 28, 97, 38, 0, 59, 81, -5, 72, -23, 25, 4, 58, -32, 100, 63, 84, -34, 56, 66, -30, 94, -79, 91, 2, 79, -84, -103, 1, 39, -36, 77, -3, 33, 51, 47, 89, -82, 43, -31, -56, 21, -102, 22, 40, 76, 63, -23, -92, -20, -54, -43, 30, 27, -23, 45, -33, -74, -54, 87, 6, -5, -61, -94, -75, 12, 77, -43, -42, 28, -4, -51, -95, -38, 76, 18, -37, -40, 16, -9, -7, 89, -15, -11, 55, 64, -27, 94, 88, 69, -64, 58, 27, -71, 32, -57, 103, 91, -45, 55, 15, 16, -41, -59, -18, 46, -32, 50, -97, 69, 75, 102, 43, -52, -69, 93, -38, -48, -89, 20, 5, 12, -13, -25, 59, -61, 12, -16, -34, -100, -81, -72, -70, -87, -51, 59, -104, 8, -69, 68, -4, -78, -101, -85, -42, -51, 90, -83, -49, 65, -15, -55, -44, 13, -102, -68, -38, 20, -23, 80, 1, 94, 82, 15, 34, 2, -76, 20, 74, -48, 31, -14, -64, 42, 55, -52, 51, 60, -84, 99, 46, -79, -14, 104, -7, -51, -9, -41, -81, -9, 58, 62, -16, 8, -90, 24, 23, -48, 33, 45, -31, -86, 17, -26, 80, 70, -88, -53, 71, -79, 23, 71, 20, -63, -62, -50, 33, 30, -74, 86, 73, -28, 20, 57, -39, -10, 89, 78, 29, -87, -35, -65, -54, 51, 51, 72, 99, -90, -94, -93, 103, -11, -67, -3, -11, -100, 92, 54, -94, -34, -68, 12, -103, 46, -93, -21, 3, 25, -75, 75, 96, 102, 18, -74, 36, 89, -16, -43, 82, 34, -44, 31, -49, 25, -57, -30, -77, 68, 77, -50, -18, -95, -95, -29, 1, 38, -93, 66, -77, 35, 80, -60, -15, -66, -24, 77, -28, 59, -72, -48, 41, 51, -38, -56, -74, -22, 55, 101, -32, -85, -6, 49, 41, -89, 86, 71, 70, -89, 78, 87, 91, -102, 89, 11, 96, 7, 102, 16, 9, 58, 61, -97, -90, -88, -25, 3, -31, -19, -91, 86, -72, 0, 87, -92, 71, -43, -67, 16, -27, 5, -46, -59, -77, -68, -65, 27, 50, 70, -68, 48, -8, -53, 11, 27, 5, 69, 100, 31, -69, 77, -97, 8, 92, -34, 0, 31, 15, 80, -33, -18, -74, -48, -98, -89, 4, 90, -96, 0, -54, 92, 58, -33, 40, 89, 17, -65, -43, -34, 62, 0, 95, -54, 38, 58, -82, -58, -40, -69, 24, 23, 82, 29, -26, 85, 89, 31, -9, -9, -42, 72, -12, -79, -42, -22, 23, 94, -62, -51, -90, 38, 68, 64, -93, -74, 75, -56, -31, 13, -25, 76, -102, 12, -59, -65, 90, 78, 32, 69, -71, 100, 54, 74, 25, -13, -38, -57, -32, -5, -65, 96, -89, 102, -20, 67, -60, -84, -15, -77, -78, -18, 48, 69, 82, 89, 45, 53, 49, 8, -12, 59, -28, -62, -43, 9, -29, 54, 91, -79, -53, -25, -51, -94, -102, 86, 91, 20, -94, 20, -69, 37, 98, 93, -25, 42, 4, -65, 26, 35, 64, 62, 57, 3, 31, -53, 32, -16, 55, 4, 40, 19, -51, -13, 53, -8, -14, -13, 44, 79, 11, 79, 13, -6, 62, -8, 87, -2, 68, 68, -82, -19, -97, -81, -80, 38, 87, -81, -1, 58, -96, 5, -73, 59, 22, 46, -64, -91, -8, -44, 93, 78, 43, 24, -78, -40, -83, 35, -83, 66, 45, -70, 95, -77, 67, 26, -99, 81, 99, 64, -55, 37, -1, 11, 31, 59, 86, -40, -26, -34, -82, -59, 101, 82, 29, 35, 21, 78, 94, 62, -66, -29, 30, -38, -103, 45, 84, -25, -13, -82, 26, 93, 28, -21, -58, 32, -43, -67, -20, -92, -100, -100, 69, 31, -43, -51, -76, 11, 99, 24, 0, -67, 99, 79, -41, -59, 0, -56, -82, -88, 28, 48, -70, 31, 5, 94, 4, 38, 81, -24, -8, 8, -72, 2, -43, 77, -61, 45, 69, -19, 82, -21, -102, -5, -19, -18, 58, -98, -37, -32, -40, 31, 46, -64, 96, -88, 2, -85, 102, -66, 16, 72, -29, -19, 36, 6, -76, -26, 45, -62, -37, -27, 88, 49, -29, 11, -95, -37, -53, 16, -96, -6, -56, 80, -37, -85, 36, 28, 26, 35, -18, 85, -57, -61, -87, 4, -64, 52, -32, 53, 79, 17, -102, -61, 39, -99, -87, 59, 60, -22, -72, 87, -24, -63, 77, -13, -43, -27, -77, -84, -83, 34, 65, 13, -59, -39, 80, 63, 73, 18, -83, 35, -76, -14, 19, 70, -63, 96, 0, 87, -78, 16, 46, -20, 55, -2, -8, 50, 93, 31, -10, 67, 16, -93, -32, 76, 102, 47, -60, 54, -46, -56, 10, -29, 85, 0, 38, 38, -13, -68, -49, 85, 70, 93, -41, 60, 65, 51, -53, -7, -35, -13, 74, 56, -77, 9, 50, -95, 66, 59, 6, 90, 46, 87, 38, -72, 79, -8, 64, 73, 59, 81, 0, -1, 39, 5, -80, -14, -90, 86, -97, 23, 76, -1, -24, -97, 63, -70, 2, -78, 80, 91, 68, 68, -2, -78, 88, 87, -81, 36, -60, -30, 14, -31, 7, -88, 100, 11, -86, 88, 77, -57, -9, -26, 61, -29, -60, 45, -75, 31, 2, 7, -14, -89, 59, -101, 40, 77, 9, 11, 36, -99, 27, 26, 65, -92, -35, -22, 86, -35, 61, 52, 75, -34, 32, 89, -24, 65, -66, 21, 24, 56, 41, 98, -28, -15, 11, -26, -45, -82, -40, 0, -15, 62, 30, 25, -7, 86, -9, 88, -70, 67, 10, -38, -22, 29, 91, -64, 36, -44, 50, -102, 90, -48, 7, -44, -101, -56, -73, -98, -30, -22, 38, -76, 82, 33, -32, -77, -27, -73, 61, -75, -68, -3, 66, 52, -21, 91, -73, 23, -69, -47, -14, -78, -63, -78, 89, 16, 49, -68, 100, -13, -97, 77, -62, 96, -3, 19, -82, -93, 99, 16, -46, -70, 43, -9, 56, 73, -40, 95, 60, -36, -22, -89, -38, -27, -11, 1, 31, 8, -58, 82, -10, -25, 84, 48, 53, 40, -28, 56, 52, -51, -18, -70, -44, 54, 71, -40, 55, 2, -26, 32, 51, -14, 42, 21, 90, 60, 93, -21, 94, 13, 33, -33, -15, -33, 88, 28, 67, 50, -100, 63, 54, -70, 48, -3, -71, 22, 16, 49, -1, 6, -7, -36, -70, 78, -32, -77, 83, -56, 32, 28, 37, 67, 11, 30, 68, 45, -103, -2, -72, 97, 24, -8, 59, 16, 8, -57, -10, 18, 26, -45, -73, -86, -32, 2, 74, -82, -27, -68, 75, 16, 59, 53, 73, -8, -60, -16, 93, -86, 86, 36, 3, -38, 9, -11, -55, 59, -33, 89, -21, 69, -73, 52, 88, 3, 53, -9, -90, -84, -83, 40, -2, 77, -35, -40, 12, -23, 7, -59, 11, 35, 60, 31, 76, -99, 46, 24, -58, -14, 74, 51, 23, 12, -104, -70, 0, -96, -98, -22, -28, -15, -78, 25, -13, -54, -50, 7, 37, 3, 23, -26, -71, 39, 39, 38, 89, -46, -68, 78, 80, -44, -81, 25, -10, 75, 33, -96, -37, -92, 37, 97, 9, -57, 84, -85, 59, 14, 33, -17, -89, -89, -68, 56, 26, 21, 76, 25, -32, 74, 16, -60, 24, 3, -73, -71, 86, 42, 25, -16, 50, -65, -49, -102, -100, 76, 94, -46, -95, 88, 6, 95, 26, 102, 64, 30, 12, 18, 12, 22, 62, 78, -14, -10, -16, 3, -18, -85, 50, -73, 46, -26, -3, -9, 75, 54, 60, -58, -32, 66, -38, 58, -65, -71, -82, -30, -52, 32, -1, -40, -36, -17, -95, -80, -57, -3, -86, 71, -52, 38, 97, 19, -96, -37, -102, 52, -50, -75, 92, 77, 13, -98, -67, 39, 88, -58, 17, 25, -82, 91, -41, -88, 12, -53, 81, -6, -98, 92, 29, -75, 66, 5, -2, 17, -18, -84, -73, -102, 23, -29, -78, 53, 77, -94, -54, -82, 6, -42, 13, -4, 43, -57, 78, -15, 99, 15, -19, 27, 34, 100, -78, 49, -54, -57, -100, -33, -45, 58, -40, 32, -51, 76, -20, 70, -69, -96, -39, -56, 35, -6, -59, 86, -70, 60, 76, -81, 32, 32, 7, -18, -47, -40, -93, 88, -7, 77, -23, -39, 14, 103, -66, -36, 38, -27, -79, -18, 61, -27, 39, 99, -20, -51, 47, 9, -22, 8, 13, 25, -94, -38, 36, -36, -4, -54, -22, -5, 35, 14, 93, -3, 10, 28, -8, -58, -5, 12, 19, -99, 69, 103, 7, 93, 22, -15, 101, 41, 53, -59, -103, 66, -44, -44, 103, -85, -97, -94, 68, 83, -11, 24, 82, -37, -90, -60, -32, -60, 45, -91, -31, 43, -82, 58, -11, 5, 1, 70, 59, -12, -70, -26, -43, 100, -87, 20, -68, 41, -48, -90, -70, -39, -90, 65, 57, 1, 5, 54, 54, -39, 97, -65, 8, -35, -38, -71, -75, -62, -42, 73, 99, -90, -3, -16, 93, 66, 93, 26, -50, -62, -12, -84, -83, 12, 69, -7, 39, -83, -9, 39, 37, 75, -25, 58, -62, -1, -49, 51, -1, 92, -56, -98, 40, 51, 54, 100, -76, 24, 65, 43, 14, -2, 48, -52, 82, -54, 30, -100, 3, -96, -76, -75, 10, -2, 3, 100, -48, -30, -94, 8, 29, -64, -6, 9, 49, -28, 34, -23, 66, -70, -40, -27, -63, 70, -43, -6, 46, 30, 36, 31, 64, -51, -87, -29, -97, -94, -31, 66, 70, 9, 49, 18, 22, -34, 80, 24, -18, -103, -7, -78, -45, 71, -56, 48, 15, -56, 66, -77, 87, 90, 99, -14, 53, -4, -77, 60, -55, 86, -80, 10, 81, 30, -86, -24, 9, 13, 24, 91, -60, 91, 27, 67, -41, 48, 83, -22, 35, 61, 105, 36, -23, 95, 10, -50, -82, 97, -55, 67, 76, 28, -73, 62, -15, -36, 69, -11, 73, 45, -31, 55, 31, -36, -18, 62, 25, -53, 35, -63, -17, 27, 22, 83, 52, 38, -90, -40, 30, -33, -74, -84, 102, 95, -13, -81, -94, 41, 58, 59, -84, -23, -4, 0, -5, -66, 66, -77, -16, 50, 11, -55, -48, 77, 78, 13, 55, 92, -17, 83, -100, 75, -90, -81, -44, 25, 49, -29, 83, -62, 5, -8, 99, -52, -37, 73, 83, 11, 66, -33, -13, 62, 56, -10, 39, 83, -8, 74, -16, -28, -77, 17, -9, 101, -3, -21, -33, -66, 81, -4, 48, -102, -35, 13, -7, 8, 58, -24, 57, -93, 73, 15, 31, 32, -8, 94, -101, -8, -43, 96, 81, 75, 36, -38, 8, 38, -4, -40, 22, 70, 28, -92, 50, -61, 85, -22, 36, -1, -103, -65, -77, 29, 49, -50, -89, -9, 57, -12, 42, -65, 44, -5, 20, -37, -38, -49, -44, 92, -18, -89, -71, -99, -93, 12, -82, -15, 18, -77, -24, -20, 8, 26, -58, -103, 9, -74, -30, 45, 49, -16, -20, -101, 55, 40, 13, -40, 20, 5, 36, -84, -11, -60, -63, -50, -7, -9, 16, 61, -45, 58, -50, -84, -26, -90, -21, 19, -55, 18, 44, 33, -63, 0, 90, 89, 18, -55, 3, 93, 0, -58, 49, 39, 93, -8, -48, 75, -45, 3, -71, 51, -18, 48, 13, 60, -69, 45, -50, -83, -17, 71, -14, 24, 92, 39, 34, -75, 10, 41, 18, 15, 98, -79, -62, 1, 73, -80, 91, 25, -36, -16, -40, 51, 23, 72, 60, -8, -77, 86, 85, -3, -10, -42, 56, 24, -100, -44, -9, -104, -1, -88, 31, -60, 74, -30, 17, -27, -40, -97, 33, -33, 70, -61, -27, 66, -54, -86, -82, 100, 21, -20, -17, -38, -62, 77, 97, -41, -8, 92, 36, -40, 20, 77, -7, 67, -61, -1, 12, 90, 96, 20, 70, -92, 64, -72, -91, -2, 78, 82, 95, 14, -84, -6, 17, -97, -49, -69, 56, 49, 0, 10, -60, 32, 76, -103, 40, -21, -45, 32, 11, 94, 9, -25, 16, 85, 16, -70, 39, 13, 54, -99, 75, -7, 46, -61, -46, 54, 53, -34, 36, -40, 44, -80, 21, 23, -82, -16, 11, -15, -51, -95, -44, -47, 37, -61, -12, 85, -15, 41, 65, -16, 93, 72, 80, 35, -94, 8, 11, 103, -78, 37, 85, -80, -1, 101, 87, -96, -91, -100, -95, 10, -89, -55, -25, 80, 15, 67, 72, 88, 42, -101, 53, -15, 21, 14, 46, -8, -20, 90, 84, -94, 88, 66, 75, -19, 14, 15, 37, -72, 55, -62, -15, 102, 21, 96, 32, 77, 2, 88, -87, -23, 58, 44, 66, -50, 21, -38, 68, -41, 60, -17, -76, -64, -33, 61, -26, 68, -34, 79, -67, 8, -96, 84, 15, 79, 53, 17, -20, 86, 95, -36, -100, 95, 32, 53, -8, -83, 85, -31, 27, 6, 57, 15, -49, 49, 8, -66, -57, -100, -75, 28, 54, -66, -5, 93, -38, -30, -75, 91, 72, 87, 97, 38, -41, -29, 81, -11, 15, -93, 73, -13, 12, 55, 70, 85, 26, -57, -53, -40, 77, 86, -23, 23, 28, -1, 76, -71, 76, 69, -52, -93, -74, -52, 80, 1, 94, 103, 10, 44, 74, -30, -47, -44, 54, -76, 88, 30, 89, -20, -68, 31, -80, 37, 79, 60, -52, -69, -34, -98, -3, 73, -5, 88, 11, 42, 44, -72, 53, 65, 58, -68, 40, -80, 44, -27, -86, -54, -75, 46, -16, 74, -7, -26, 24, 58, -83, 64, -25, -30, -14, -46, 44, 41, 29, 59, -29, 58, -32, -66, 29, -70, -95, 11, 25, 73, 53, 70, 29, 2, -36, -32, -27, 44, 3, 53, 100, -88, -64, 24, 32, -16, -90, -54, 17, 63, 82, 1, -22, 43, -37, 90, -35, -17, 39, -81, -67, -9, -32, -39, 40, 105, 17, 63, 65, -18, 80, 84, 37, 16, -5, -82, -90, 7, 3, -35, 44, 82, 1, -33, -72, 12, 56, 49, -96, 15, 4, 5, -6, 11, -82, -42, -98, -84, 97, -47, -10, -33, 40, -66, -39, -21, -58, 14, 59, 72, -19, 1, 48, -66, 90, -80, -2, -71, 32, -52, 69, -12, -85, 7, 31, -102, -19, -76, 21, -30, -74, 98, -6, -102, -74, -1, 20, 89, 87, -28, 91, -48, 89, 52, 51, 101, -2, -2, 90, -26, -75, -18, -45, -49, -18, -86, 95, 63, 18, -12, 7, -46, -28, 20, -13, 5, -53, -34, 98, -99, 28, 92, 81, -21, -82, -19, -84, -8, -73, 56, 95, 58, 11, 33, 99, -49, -14, 22, 43, 101, 72, 7, 42, 65, -69, 59, 59, 14, -79, -9, -70, -23, 96, 67, 28, 21, -18, -88, -78, 55, -46, -24, 13, -103, -26, -25, -46, 45, -72, -19, 9, -66, 88, -16, 51, 70, -63, 78, 96, 71, -2, 53, 23, -100, 9, 32, 16, -18, -47, 60, 19, -16, 48, -86, 68, -63, 90, -7, 93, -74, 39, -87, -6, -100, -69, -79, -101, -27, 93, -7, 95, -42, 33, -9, 49, -6, 24, 19, 74, 50, 49, 83, -15, 96, -92, -25, -34, 36, 56, -53, 73, -72, -66, -32, -92, 94, 75, -59, 23, 64, 12, 53, -70, -50, -61, -103, -2, 48, -18, -26, -24, 40, 27, 6, 17, -79, -42, 84, -78, -6, -102, -13, -84, 27, -34, 58, -10, -69, 7, -18, 39, 10, 3, 36, 102, -74, -77, -50, 15, -1, 25, 73, 68, 37, 91, -83, -19, -54, -103, -15, -24, -60, 58, 2, -9, 96, 3, -32, -91, 5, 47, -90, -34, -9, 34, -2, -53, -89, 27, 58, 102, -42, 46, -65, -93, -66, -52, -15, -48, 88, -84, 89, -26, 40, 10, 46, -66, 5, -2, 68, -35, 16, 100, 4, 76, 3, 51, 21, 98, 26, -25, 10, -81, -15, -40, -1, -15, 59, -55, -76, -97, 50, 70, 45, 28, -34, -104, -60, -51, 96, 98, 96, -96, 15, 78, 60, -86, 28, -78, -49, 77, 31, -30, -13, 46, -31, 46, 29, -8, -80, 20, -29, -103, 76, -33, 46, -14, -32, -11, 56, 58, -36, -4, -9, -50, 65, -70, -55, 86, -50, 33, 10, -68, 103, 61, 50, 40, -91, 56, 39, 39, -21, -24, -97, 24, 86, 26, 19, 17, 28, 2, 16, -18, 53, 94, -79, 41, -4, 8, -65, -78, -98, 13, 47, 16, -31, 80, -56, -90, -61, 47, -46, -80, -30, 50, 74, -82, 8, -77, 36, -90, 68, -20, 60, 39, -88, 71, -16, -5, 0, 8, 5, -64, -77, 102, -47, -95, 17, 9, 79, 83, 39, -27, -96, 42, -48, 80, 55, -94, 75, -4, -94, 15, 32, 0, 16, 77, -14, 3, -50, -62, -36, -12, 57, 81, 65, -52, 64, 38, 82, 52, -103, 30, -92, 94, 45, -51, 82, -35, 44, -7, -57, -84, -61, -59, -39, 78, 90, 78, 47, 90, 78, -76, 72, 5, -96, -93, -61, -16, 12, -90, -18, -29, -29, 55, -75, -30, -19, -16, 14, 46, -36, -56, -10, -20, 96, -67, -9, 101, 72, -75, -39, -51, -95, -54, -41, 100, -46, 7, -37, -10, -13, 33, 36, 75, 22, -4, 46, 17, -73, -68, -15, 88, -21, 26, 80, -32, -51, -84, 36, -75, -88, -30, 74, -52, 14, -19, -87, 3, 5, -79, 67, 3, 5, -86, -61, 49, -89, 28, 6, 41, 38, -38, 98, -98, 17, -15, 25, 75, -89, 86, -4, 14, 70, -96, -35, 62, 7, -52, 73, -3, -38, 64, 35, 92, 84, 40, -25, 101, -22, 20, 55, -55, -43, -60, -10, 76, -97, 76, -79, -55, 80, -39, 39, -50, -42, 101, 20, 16, 1, 91, -94, -77, -61, 36, 92, 99, -52, -47, 0, -5, 54, 50, 87, -77, 71, -71, -93, 91, -57, -80, 93, 77, -6, 67, 31, -99, 73, 67, -25, -61, 21, -93, 51, 23, -92, 29, 41, -98, 75, 64, 5, 16, 72, 13, -97, 16, -100, -85, -43, -7, -92, -90, 31, -47, -30, -72, 99, 44, 68, 12, 90, -4, -49, -29, -82, -103, 51, 52, -89, 14, 28, 16, 54, -73, 54, 45, 75, 5, 13, 3, 90, -64, 76, -70, -8, -57, 61, -44, -80, 43, 24, -60, 85, 38, 65, -37, 48, 52, -7, -37, -26, 8, 30, 0, 78, 84, -66, 54, 101, 39, 22, -29, 74, 1, -50, -90, 7, 41, 49, 73, -31, -45, 90, -73, -3, 43, -98, -14, 52, 61, 8, 80, 8, 91, 17, 7, -32, -43, 13, 91, 77, 89, -35, 57, -70, 50, 14, 39, -68, -82, 53, 4, 3, -67, 91, 79, 15, -86, -21, -92, 102, -75, -79, -28, 62, -85, -4, -75, 45, 39, 80, -96, -45, -25, 35, 33, 2, -83, 4, 39, 60, -17, -78, 97, 59, -81, 28, -35, -69, -71, 52, -36, 103, -3, -53, 89, 83, -98, 45, -87, 94, -78, 58, -23, -21, 3, 13, -15, -99, -29, -60, -25, 46, -59, -46, 32, -55, 32, 71, 25, -70, 0, -56, -89, 61, -92, 4, 64, -86, 33, -60, -70, -72, -27, -71, -57, -96, -92, 17, 29, 79, -20, 98, -53, -89, -86, 77, -24, 27, -39, 72, 31, -55, -75, 48, 84, 5, -88, 32, 37, -31, 57, -51, -6, 77, -50, 98, 58, -57, 59, 58, 48, -94, -50, -21, 74, -52, -58, -11, -43, 93, -29, 100, -5, 98, -101, 38, 85, 76, 93, 21, 31, 69, -16, 8, 56, -9, 66, 25, -91, 81, -92, 2, 72, -45, 58, 47, 61, 13, -34, -89, -94, 12, 95, -68, 50, -86, -37, 86, 18, 93, -62, -39, -26, -18, 24, 84, 39, 12, 52, -13, 89, 1, 28, 55, -54, 52, -9, 63, 41, 51, 51, -27, 96, 12, -59, -16, 4, -93, 25, -76, -32, 40, 87, 102, 75, -56, 23, 18, -27, -47, -49, -66, 5, 80, -27, -89, -83, 102, 65, -76, 40, 83, 21, -13, -42, -67, -36, -25, -88, 11, -79, -38, 88, 43, -48, -75, -66, -54, 24, 64, -35, 32, 17, 35, -14, 11, -29, -8, -31, 101, 19, 16, 65, 30, -56, 94, -59, -22, -2, 42, 36, 79, 52, 12, -87, -16, -58, 66, -16, 33, 97, -76, -72, 50, 68, 14, -31, 4, -39, -2, -2, 14, 24, 30, 97, 54, -11, -9, 6, -32, -80, -6, 69, 91, -11, -15, -6, -32, -57, 47, -89, 80, -32, -97, 67, 33, 34, 97, -69, 32, -79, 44, 19, -74, -11, 43, -57, -7, -98, 49, 0, 51, 47, -97, -36, 8, 78, -47, 70, 41, -65, -28, -78, 78, 69, -46, 31, 83, -52, 92, -21, 38, -29, -18, 61, 61, 47, 44, 80, -23, 71, -32, 51, 97, -7, -4, -30, 28, 20, -56, -1, 52, -58, -14, 70, -38, -94, 23, 94, -104, 81, -13, 27, 46, -79, -62, 39, -64, -32, 70, -22, -81, -80, 13, -31, 41, 72, 45, -29, 103, 11, -77, 64, 70, 11, 80, 49, -101, 35, -92, 30, 0, -14, 7, -66, 89, 83, -14, -15, 72, 13, 34, -77, 12, 102, -62, 57, 78, -87, -35, -56, 75, -36, -50, 89, -6, -75, -4, 61, -66, -52, 68, 84, 73, 30, -37, 72, -46, -65, 13, 29, 48, 32, 0, 76, 33, 56, 91, 16, -37, 8, -81, -5, 25, 27, -98, -61, -44, 35, -33, 93, 96, 56, -30, 102, 38, 18, 45, 38, -87, -24, 21, 25, -89, 50, 2, -55, 14, 11, 41, -39, 69, -42, -40, -19, 86, -55, -98, 90, -34, -79, 9, 84, -83, -84, 76, -13, 94, 33, 15, 77, -84, 22, -7, -35, -78, 72, -29, -104, 99, 70, -78, 39, -71, -16, -45, 69, -2, -25, 87, 24, 47, -49, 24, 81, 84, -49, -49, 15, 64, 61, -94, -93, -96, -81, -60, -71, -94, -9, 39, 25, -7, -47, 103, -22, -61, -87, -71, 36, 3, 6, 62, -67, -39, -99, -24, 5, -10, 80, 77, -24, 86, 28, -93, 94, -29, 18, -90, -71, -20, 50, -100, 38, 19, -53, 1, 31, 47, 34, -14, -12, -43, -94, 39, 31, -47, -36, -2, -7, 16, 21, 6, 104, -87, 64, -57, 97, 28, -1, 4, 68, 86, 2, 101, -100, -93, 81, -90, 63, -23, 1, 60, 82, -86, 60, 2, 34, -21, -87, 15, 90, -42, -88, -97, -102, -74, -97, 54, -27, 48, -45, 82, 21, 22, -95, 49, 80, -100, -23, 16, 27, 80, -96, -59, -93, -81, 82, 47, 63, -25, -47, 18, 66, -52, 7, 98, 58, 5, 1, 32, -21, 79, -7, 23, 0, 5, 92, -49, -4, -87, 101, -68, -9, -54, -40, -101, -12, -32, -10, -47, -56, 9, -89, -55, -26, -68, -99, 83, -64, 44, 61, -11, -99, 66, -92, -56, 50, 50, -28, 78, -54, -72, -28, -23, -44, -22, -45, -6, 13, 102, 74, -22, 52, -23, 60, -22, -44, -38, 24, 42, 27, 27, 27, 20, 97, -58, 97, -90, -14, -50, 43, 96, -10, 58, -64, -8, 55, 11, -47, -24, 93, 44, 46, 11, 49, 63, -93, 1, 91, -66, -13, 9, 83, -49, -71, -77, -29, -80, -55, -51, -24, -1, -54, -23, -6, 6, -64, -45, -97, -89, 95, -100, 57, 57, -56, -7, -5, 76, 66, -102, 10, -28, 79, 73, -32, 48, -101, 33, 0, -92, 13, 99, -62, -21, -18, -89, 6, 17, -31, 103, 34, -29, -74, 13, -40, -81, 87, -86, -100, 71, 19, -66, -69, -33, 67, 20, 55, 66, -47, 73, 57, -34, 4, -86, 5, 29, -55, -6, 61, 19, -96, 76, -103, 80, 36, -92, -6, -18, 10, 95, 3, -20, -58, -37, 53, 56, 45, 22, 81, -33, 17, 29, -2, -68, -84, -90, -41, -22, 85, 41, -100, 4, -60, -67, -69, 31, 18, -38, -39, -48, 78, -102, 26, 18, 70, -54, -49, -25, 96, 44, 40, -24, 76, -38, -32, -87, 16, -34, 96, -37, -73, 53, 16, -19, -41, -67, -24, 95, 29, 17, 9, 12, -78, 3, 33, -100, 15, 98, -94, -95, 92, -93, 57, 32, -59, 99, 37, 38, 28, -87, -10, 81, -55, -43, -16, -101, 97, -95, 66, 29, 99, -33, -69, -94, 99, 14, -40, -18, -44, 70, -98, -6, -5, -54, -102, -46, -1, 4, 2, -82, -103, -43, -48, -25, 15, -93, 74, -82, 54, 21, 20, 40, 5, -72, 49, 0, 56, -25, 65, -86, 96, 95, 82, -89, -27, 86, 91, 56, 65, 45, 15, -55, -10, 26, 30, 27, -84, -22, 97, 63, -78, 91, -56, -76, 80, 59, 73, 80, 29, -76, 84, 103, -25, 61, 0, 20, 30, -81, 103, -22, -56, 62, -24, -85, -96, 27, 33, -99, 101, -33, 12, 66, -31, 7, 89, -64, -60, -81, 83, 0, -103, -56, 77, -14, -47, -76, 74, -38, -53, -70, -7, 10, -76, 9, 25, 41, -55, 73, 27, 1, 61, -101, -1, -7, -86, 99, -77, -18, -33, -105, -35, -47, -18, -36, 41, -94, 76, 28, -2, 30, 99, 2, -83, 98, -15, -68, -31, 49, -1, 75, 12, -76, -86, 29, -67, 90, 79, -24, -60, -15, -10, -11, -26, -14, 3, 41, -91, -85, 97, 36, 69, -25, -36, -56, 86, -59, -79, -66, -55, 15, -103, -37, -105, 18, -99, -19, -17, 37, -17, -42, 6, 50, 53, 25, 66, 102, 11, -93, 77, -4, 41, -27, -54, 77, 70, 96, 46, -35, -81, 84, -8, -43, -63, 67, 22, -31, 66, -99, -49, -27, 24, 67, -57, 41, 59, 46, 52, -67, -90, -10, 59, -21, -23, 13, 54, 16, -35, -23, -92, -38, 92, 78, 56, -32, 20, 70, -97, -29, -34, 82, 34, 24, 27, -102, -78, -12, 66, 98, -2, 12, -81, 89, 0, 53, -84, -4, -86, -47, 88, 33, -52, 70, -81, 8, -28, -35, -90, -77, 30, 93, 32, 48, -48, 98, -1, -27, 32, 80, -32, 89, -80, -32, -86, 16, 30, 7, -60, -74, -101, -101, -92, -45, 80, -89, -88, 68, 43, -99, -1, 79, 66, 57, 73, 42, -18, -96, -98, -50, 101, -83, 100, -19, -34, 94, 16, 78, -96, -46, -23, 57, -40, -19, -28, -27, -69, 85, -17, -64, -67, -63, -70, 52, 24, -88, -46, 75, -100, -95, 47, -42, -54, -2, 15, -53, -10, -78, -97, -73, 64, -92, -92, -57, 4, 39, -10, -92, -53, -77, -70, 11, -78, 34, -90, -52, 70, -53, 11, 10, 2, 72, 55, 49, 0, 59, 50, -30, 99, 33, 74, -47, -101, 60, -60, 1, 20, 55, 103, -71, 50, -78, -41, -19, -47, 103, 76, -87, -1, 81, 35, 65, -75, -80, -9, -40, -100, 19, -92, 57, 64, 22, -56, -33, 3, 9, 93, -75, 46, -80, 5, 10, 3, -66, -101, 36, 56, 96, -51, 6, -43, -81, 48, 28, 76, 79, -81, -45, 56, -31, -62, -95, -99, -78, 93, 87, -92, -60, 49, 66, -6, 98, 7, -27, -34, -93, -73, -66, 28, -59, 32, 90, -66, -100, -45, -15, 65, -83, 56, 4, 28, -69, 10, 32, 100, -6, -22, -6, -57, -64, 1, -16, 72, 2, 102, 42, -70, -19, 74, -98, 3, -91, 51, -33, 19, 59, -93, 65, 1, 8, -10, -89, 78, 12, -44, -98, -99, -12, -75, 99, -86, 49, 43, 50, 81, 31, -76, -53, 44, 53, 24, 91, 49, -92, -26, -40, 16, -32, 64, 83, -5, -64, -78, -87, 18, -102, -42, -25, 62, -7, 15, -50, 65, -101, 75, -101, -51, 83, 24, 41, -48, 100, -18, 94, 14, -15, 48, 48, -44, -82, 41, 69, -76, -13, 18, 61, -16, 82, -45, 101, 36, 83, 36, 46, -46, 49, 76, -84, 44, -99, -97, 43, -35, 66, 53, 31, -34, -43, 49, -13, -29, 17, -67, -83, -53, 25, 44, 88, -2, 99, 23, -83, -60, -49, -71, -76, 17, -73, -83, -96, -91, -25, 11, -65, -59, -51, 12, -24, -24, -34, -98, 102, 94, -55, 59, 58, 35, 75, -25, 101, 70, -102, 13, 46, -75, -63, 98, 71, 44, -24, 0, -100, -64, 40, -99, 23, -11, 77, 53, -3, 16, 54, -73, -63, 4, 76, -16, -6, 0, -92, 20, -90, 99, -83, 5, -6, 21, -79, -19, 83, 54, -80, 42, 69, 15, 74, 1, 33, 42, 9, 1, 33, -1, 66, 45, 74, 4, -23, -8, -39, -91, -41, 4, 100, 75, 63, -81, 85, -20, 70, 88, 86, -8, 12, -63, -19, 6, -18, 44, -18, 77, 13, -90, -61, -61, -69, -17, -18, 14, -101, -11, -43, 7, 17, -54, -89, 21, -79, 89, -59, 47, -103, 33, 72, 25, -75, 37, 24, -14, 97, -89, -60, 35, -102, -87, -28, -102, 65, 63, 8, 8, -39, -24, 95, 31, -32, 89, -102, -87, -6, 16, -62, 50, 34, -71, -49, 7, -68, 15, 37, -100, 94, -25, 68, -47, -49, 94, 41, 36, -27, 60, -25, -41, 5, -43, -53, -55, -83, -59, 98, -47, 41, -41, 66, -1, -12, -33, 100, 13, -68, 31, 2, 79, 79, -41, 11, 14, 23, -75, 38, -45, 39, 69, 88, 9, -85, -42, -10, -15, -93, 97, -87, -101, 13, 0, -73, -77, -100, -53, -98, 43, -73, 16, -12, 59, 7, 74, -62, -49, -53, -27, 18, -93, 10, -84, -88, -62, -43, -32, 4, -4, 28, 22, -25, 12, -44, -27, -21, 36, -65, 76, 71, 74, 36, 94, 93, 24, 42, -82, 96, 79, -77, -102, -16, -17, -82, 8, -16, -3, -5, 35, 97, -61, 36, -48, 71, -23, -31, -15, -2, 95, -94, -97, 79, -59, 67, -36, 9, 3, 34, 5, -65, 49, -14, -74, -89, -99, -52, 16, 84, 51, 76, -41, 46, -88, -80, 9, 64, 45, -70, -9, 97, -12, 28, 93, -38, -92, 38, -33, -43, -19, 81, 68, 10, -92, -7, 58, 16, 92, 82, 59, 67, -36, -22, -65, -85, -96, 19, -76, -91, 57, -48, -6, -56, 66, -30, 67, 35, -79, -83, 26, 26, 63, 29, 3, 69, 97, 14, -8, 100, 44, -22, 7, -93, 37, 77, 60, -99, 89, 48, -66, -75, 57, 37, -34, -60, -6, -28, -21, -34, -98, -73, -10, 92, 67, 91, -76, 61, -76, 85, -94, -58, 11, -77, -32, 92, -30, -83, -79, 23, 23, -66, 9, -73, 66, 73, -25, -57, -40, 62, 54, 71, 95, -94, 45, 50, -27, -42, 33, 71, -67, -64, 95, -96, -95, 54, 98, -58, 19, -39, 21, 1, -72, -42, 35, -64, -90, 85, 82, 37, -47, 101, 55, -81, 76, -20, -6, 54, -100, -44, -9, -22, 78, 18, 40, -14, 18, -30, -57, -83, -5, -84, 67, 26, -28, -83, 7, 43, -99, 87, 90, 72, -99, -17, -13, -7, 26, 60, 53, -94, -81, -4, 51, 73, 63, -64, -48, 55, 92, -59, 74, 33, 25, 21, 98, 101, -84, 52, 92, 22, 89, 18, -55, 83, -68, -39, -21, -64, 87, 38, -57, -96, 95, -44, 6, -57, 2, 61, -11, -103, -4, 64, 37, -37, 52, 83, -47, -91, -57, 69, -10, 72, -38, -5, 35, 36, -29, 49, 43, 66, -15, 68, -33, 74, -19, -33, -90, -11, 27, -78, 12, -63, -91, -44, 33, -5, 89, -23, 55, 8, -49, 17, 94, 57, 51, 37, 51, 24, 98, -37, 92, 30, 71, 89, 104, 21, -22, 51, 81, -100, -86, 87, -9, -21, 102, 37, -33, 58, 91, 1, -23, -42, -90, -5, 100, 26, 83, 27, -2, 99, 99, 47, 28, 25, 98, -12, -17, 94, -85, 34, -3, -84, -96, -103, -76, 34, 59, 39, 26, 76, -1, 88, -89, -36, -62, -49, -75, -7, -1, 12, 93, -81, 66, -73, 95, 64, 76, -21, 58, 77, 84, -97, 81, 46, -100, -60, 84, -71, -90, 54, -41, 7, -18, -20, 86, -51, -2, -100, -62, 92, -37, 85, 95, -63, 86, -63, 14, 37, 85, 59, 85, -37, 78, -12, -53, 83, -74, -29, -100, 43, 27, -76, 30, 52, -8, -50, 65, 4, -6, -37, -32, -100, -10, -22, -20, 20, -68, -66, 26, -14, 31, -8, 64, 29, -55, -51, -76, 94, -86, -16, -95, 95, -13, -19, -66, -15, 45, -56, -8, 50, 91, -46, 1, 89, 88, -14, -77, 47, 24, 69, 49, -15, 87, -30, 64, 76, 79, 71, -80, 14, -103, -85, 4, 76, -56, 83, -19, -24, 83, 14, 32, 83, -5, -60, 24, -72, -37, -54, -18, 10, 35, -33, -102, -34, -91, 48, -47, 95, 50, 40, -97, -18, 15, -5, 63, 65, 99, 17, 84, 85, -95, 100, 53, -17, 98, 97, -65, 41, 32, -56, 100, -22, 0, 50, -47, -27, 99, -40, -99, 68, 47, 93, 38, -11, 71, 101, 89, 104, 70, -29, 84, 72, 16, 102, -81, -6, 91, 0, -68, 78, -35, -53, 11, -27, -16, 76, -2, -30, -25, 60, 33, 41, 101, -43, 86, 61, -46, -1, 81, -57, 30, 20, -41, -98, -70, -58, 30, -57, -23, -8, 41, 38, -38, 39, -66, 71, -16, -66, 97, 26, 11, 42, 74, 51, 50, -48, -19, 40, -8, -73, 19, -92, -51, 87, -70, 38, 8, -29, 27, 47, -53, -64, -47, 58, 34, 22, -103, 96, 54, 53, -77, 22, 54, -29, 90, -35, 73, -39, 63, -28, -39, -73, 83, -32, 14, 85, 31, -6, 52, 69, 58, 80, -4, 92, 82, -36, 17, -58, 0, 53, -16, 67, -87, 29, -88, -23, 81, -74, 30, -7, -79, 89, -56, -64, -36, 28, -75, 97, 63, -101, -66, -34, 18, -102, 12, -22, 84, 86, -65, 92, -97, 64, 99, -63, -68, 70, -41, 80, -91, 56, -63, -29, -82, 82, -47, 25, -24, -83, 69, 43, 4, 38, -81, -6, 94, 47, 63, 90, -12, 37, -11, -10, 89, 7, -45, -6, -34, 13, -45, -100, 63, 51, -71, 49, 45, 102, -33, -57, -94, -8, 16, -57, 13, 0, -8, -80, 101, -37, 13, -5, -90, 7, 97, -86, 76, 99, 72, -103, 27, 23, -37, -21, -67, -93, 14, -29, 10, 2, -53, -95, -5, 94, 63, 52, -102, -35, 3, 87, -5, -28, 25, 32, -84, -17, 44, -4, 35, -18, -99, -26, 75, 60, 77, 36, 43, -4, -98, 14, -39, 82, 49, 4, -67, -79, 83, -16, 64, 9, -9, -7, 32, 82, -51, 47, -30, -18, 71, 89, -89, -38, 42, 81, 17, -31, -45, 54, 1, -72, -10, 40, -90, -83, 90, -92, 13, 19, 49, 59, -20, -61, -67, -43, 24, 74, 88, 103, -53, -98, -38, 42, -102, -23, -35, -50, -57, 9, -79, -9, -78, 29, 60, -70, 92, 84, -9, 89, 68, 36, -30, -71, -58, -37, -47, -75, 79, 34, -51, 67, 63, -1, -66, -11, -99, 22, 72, 71, -11, -6, 54, -67, -55, 39, -89, -83, -19, -53, 78, 67, -57, -31, 103, -18, -41, -80, -66, -47, -31, -77, -38, -18, -62, 54, -91, 18, 69, -75, -20, 51, -71, 67, -68, -98, -26, 8, 22, 68, 6, -7, 38, 91, -48, 37, -14, 76, -67, -55, 90, -76, 55, 77, -68, -57, 30, -62, 83, -91, 9, -49, -78, 28, -43, 88, -60, -16, 0, -9, -79, -93, -20, 42, -33, 66, 32, -35, 35, 63, 1, -86, 27, -79, -41, -42, -93, 17, -42, 49, 84, -81, -3, -84, -61, -37, -63, -64, 91, 59, -8, -104, -83, -55, 22, -46, 86, 12, 27, 52, -100, -35, 101, 12, -58, -32, -89, 39, -1, -43, 1, -34, -68, -91, 62, -54, -52, -27, 77, 0, 31, 1, 17, 77, 58, -71, 80, -88, -79, 19, -21, -67, -75, -10, -73, 92, 95, 58, 84, -52, 28, 49, 36, -92, 57, 96, 81, -25, 49, -7, 5, -27, 10, -100, 24, -57, -91, 5, 78, -82, -85, -9, 11, 98, -8, -9, -85, -38, -80, 2, 18, -91, -87, -23, 49, -51, -27, -93, 34, 17, -59, 75, 44, 90, -14, 64, 23, 29, 60, 49, 67, -62, -103, -34, -102, 92, -53, -101, 34, -26, 27, 97, 10, 12, -92, 84, -68, -102, 59, 81, 68, 19, 38, -64, 79, 65, -4, -84, -96, -101, -73, 1, 94, 79, 94, -51, -62, -30, -41, 31, -22, -78, -10, -60, -68, -43, 33, -96, -49, 52, 26, 43, 16, -38, 49, -72, -86, 52, -18, 77, 54, -93, 71, 4, 45, 69, 54, -5, -32, -72, 10, 77, 80, 76, 22, 12, 40, -62, -46, 102, 78, 80, -1, 96, -4, 83, -65, 66, -83, -34, 63, -84, -9, -30, -13, -60, -92, -33, -45, -47, -45, 10, -10, 73, -90, 41, -68, -86, -33, -81, -66, -77, -32, 60, -45, 54, 31, -65, 74, 100, -7, -64, -60, 82, -71, -72, 65, -87, -36, 77, -85, -92, -20, -8, 55, -91, 65, -71, -82, -91, 45, 28, 0, 10, -43, 82, -29, 36, -14, -63, 72, -1, -59, 41, 88, 10, -96, 16, 11, -95, -13, 70, -16, -30, -38, 6, -53, -32, -2, -31, 19, 74, -6, 69, 72, -87, -56, -78, -18, -56, 79, 0, 92, 24, 98, -25, -17, -104, 28, 28, 13, -46, -11, 22, 19, 33, 8, -85, 81, 92, -99, 8, 85, 83, 35, -85, -41, -66, 83, -58, -33, 104, 99, 35, 52, 31, -85, -80, -58, -56, -99, -5, -42, -46, 22, 21, -67, -19, -24, 66, 16, -77, 27, 13, 13, -38, 98, -97, 57, -35, 20, -86, 4, -67, 7, 83, -93, -87, -22, -27, 77, 73, -17, -9, -28, 100, 22, 71, 97, 1, 36, 75, 91, 100, 97, -29, 98, 67, -64, -64, -75, 70, 56, 31, 7, 18, -92, -42, 13, -8, 95, 5, 39, 41, -94, 85, -42, 93, 86, -64, -84, -43, 79, -79, -74, -80, -91, -23, -8, 55, 99, 57, -48, -91, 36, 81, 92, -60, 41, -25, 95, 58, 59, 61, -1, -78, -11, -78, 103, -17, 87, -65, -11, 58, -28, 55, -74, 54, -52, -93, -22, -48, 75, 55, 57, 40, 6, -23, 75, -48, 99, -29, 70, 52, -35, 66, 64, 20, -22, -101, 44, -74, 76, -80, 39, -32, 18, -54, 75, 91, 17, 85, 29, 27, -12, -12, -1, 75, 101, -76, 72, -59, 97, -44, 72, 62, 70, -98, -46, -3, 76, 52, 8, -75, 52, 21, 74, -16, -62, 104, 96, 55, 49, -22, -62, -101, -24, 75, 21, -61, 22, -96, 36, -13, -27, 42, -39, 1, 53, 85, -84, -87, 0, -17, -18, 39, -89, -22, 100, -20, -75, -44, 82, -99, 95, 55, 27, -2, -60, -102, 76, -64, -38, 52, -51, 92, -12, 102, 70, 32, -43, -1, 3, 57, -25, 5, 11, 31, 22, 73, 87, -42, -56, 52, -13, -16, 21, 70, 81, -21, 6, -102, -97, -64, -32, 46, -23, -57, -11, 24, 69, 100, 46, -42, -103, -53, 68, 92, 48, -7, 12, 84, -68, -46, 96, -42, 11, 74, -67, 85, -78, 49, -70, 57, -40, -20, -42, -42, 19, 18, -8, 68, 66, 15, 50, 19, -12, -21, -50, -53, -25, 97, 71, 45, 77, -79, -71, 98, -37, -31, -69, -90, -68, -90, -95, 20, -34, 8, 88, 84, -12, 4, 30, -17, 66, 62, -66, -49, -76, 57, 57, -34, 65, 34, -32, 42, 60, 23, -44, -77, 63, -102, 26, 79, 29, 11, 65, 23, 43, -47, -69, 62, -46, -25, 74, -98, 95, -28, -102, 46, -45, -26, 74, -10, -28, -15, 68, -30, 59, -51, 44, -60, -66, -17, -54, -45, -72, 93, -101, 37, 79, 99, 18, -59, 91, 59, -85, -1, -74, -20, 100, -70, 90, -42, 15, 15, -47, 12, 47, 37, -45, 75, 23, -86, 45, -38, 63, 25, 75, 41, -28, -37, -95, 19, -97, 1, -98, -83, -42, -67, -52, 103, 37, 34, 12, 96, 89, -81, 96, 22, -27, 102, -99, -9, 37, -100, -48, 93, -20, -102, 87, 44, 98, -24, 7, 103, 50, 91, 98, 67, 34, -44, 63, -43, -52, -1, 89, 104, 76, -18, 32, 52, 3, -93, 85, 47, -96, -38, 79, 50, -80, -68, 32, 48, 101, 91, 41, 73, -102, 81, -99, 89, 84, 76, -45, -30, 102, -46, -63, -12, 24, -75, -87, 10, -5, 96, 83, -50, -17, 2, -89, -41, -91, -2, 102, 21, 86, 67, 80, -19, -26, 12, -89, 54, -30, 45, 93, -23, -70, 14, -5, 41, 16, -88, 21, -66, 33, -82, -61, 61, 20, -44, 29, -1, -11, 23, -90, 19, 58, 5, -56, 47, 50, 90, 69, -63, 57, -90, -47, -8, -38, 82, 32, 104, 54, -49, 42, -28, 54, -68, 101, -7, -13, -18, -52, -41, -22, -44, -98, -73, -47, -85, -7, -87, -61, -73, -35, 1, 98, 12, 102, -71, -1, 25, -6, 44, 101, 84, 0, -59, 70, -76, 30, -30, -98, -18, -27, 32, 57, 91, 70, -13, -41, 71, -16, 6, 70, -35, -5, 3, -91, -27, 99, 57, 2, 13, -23, 13, -29, -90, 85, -62, -87, -91, -103, -96, -13, -22, 0, 93, -91, 30, -30, -89, 2, -53, -49, 86, -64, -52, -69, -40, 92, 9, 75, 105, -14, 42, 31, -30, 75, 82, -38, 101, 56, 16, 58, -94, -53, -90, 10, 64, 21, 71, -9, 39, -31, 6, 32, 52, 73, 88, -25, 102, -39, 79, -55, 59, 35, -78, -91, -79, -55, -4, -93, 54, 38, 66, -66, 6, -45, 16, 31, 24, 33, -102, -103, -55, -16, 44, 99, 14, 48, -69, -23, 35, 43, 101, -44, -56, 25, 93, -61, -92, -39, -39, -6, 81, 71, -13, 85, -78, 75, -42, 20, -39, 94, -72, -77, -100, -101, -90, -101, -8, -57, -95, -32, -68, -95, -52, 39, 65, 56, -92, 73, -64, -32, -10, -3, 53, -76, -50, -9, -29, 21, -53, -62, 87, 0, -97, 60, -85, -57, -90, 101, -80, -9, 4, -29, -84, 8, -4, 15, 61, -96, -28, -41, -23, -87, -77, -18, 77, 24, 28, -8, 0, -35, 92, -5, -64, -43, 46, 78, -62, 68, 75, -57, -82, -73, 79, 103, -8, 89, -71, -80, 13, -31, 87, 83, -50, 67, -49, 83, -94, -60, 47, -56, 41, 53, -93, 89, -46, -57, 64, -82, 44, 94, -14, -40, 48, -23, -69, 19, 53, 42, -101, -103, 76, 34, -55, 44, 32, -30, 12, 75, -57, 24, 11, -11, 19, 100, -53, -90, 74, -32, 25, -101, 53, -56, -3, -46, -9, -21, 83, 51, 100, 47, -45, 75, -51, 6, -49, -42, -102, 79, 66, 58, -65, -90, -22, -47, -55, -72, -79, 58, -93, -8, 48, -9, -17, -98, 100, 74, 27, 69, -61, -43, 2, -23, 2, -101, -74, -36, 99, 90, -56, -13, 93, -3, 36, -80, -44, 17, 11, -69, 59, 6, 64, 21, 60, 51, 88, -61, 84, -31, 87, -99, 54, 9, 18, -64, -97, 87, 34, -69, -44, -57, 6, 41, 26, -60, 101, 48, 97, 94, 49, -12, 47, 5, -80, 35, -15, -45, -67, -33, -57, 59, -18, 37, 10, 96, -5, -44, 36, 67, -49, -93, -95, 63, 42, -89, 51, -76, 85, 49, 44, 30, -88, -9, -61, 28, -65, 11, 67, -44, -73, 91, -84, -46, -58, -17, -80, -8, 62, 43, 72, 5, -92, -15, 42, 79, 34, 95, -11, -55, 37, 24, 87, -98, 4, 58, -65, 61, -88, -19, -98, 2, 60, -32, -50, -55, 30, -54, -102, -66, 73, -53, 88, -78, 61, 4, -43, -40, 94, 70, 24, -68, 38, 91, 13, -7, -47, -6, -82, 56, -83, -64, -3, -68, 52, -68, 59, 49, -91, -24, -55, 56, 55, -92, -66, 53, 27, 83, -44, 88, -80, -97, 15, 71, 67, 78, -99, 95, 44, -57, -70, -44, -6, 96, 86, 21, -29, 23, -10, -41, 80, -60, 88, -46, -29, -69, -23, -62, -34, -64, 60, -81, -84, -40, 26, 55, -48, 85, 95, -75, -72, 11, -47, 42, -73, -19, -75, -57, 39, 62, -32, 75, -35, 84, 66, -23, -68, 84, 48, 25, 101, -3, -22, -98, -27, -44, -13, -100, 9, 103, 95, 13, -8, 42, 35, -33, 27, -45, -45, 32, 56, 98, -33, 30, -27, 61, -94, -103, 25, -88, -34, -69, 98, -16, -32, -66, -3, 50, 1, 62, -43, 99, 53, 98, 101, 69, -2, -74, 66, -91, 101, 41, 33, -62, 23, 48, 102, -80, -54, -16, -13, -56, -78, 61, 53, -34, 22, 43, 62, -17, -102, 12, -103, 21, 45, 101, -63, 52, 78, -16, 76, -99, 41, 87, -69, 38, 40, -67, 5, -60, -47, 70, 92, 12, 26, 2, -41, 15, 11, 68, -41, -8, 27, -59, 73, -46, -78, 62, 61, -98, 45, 90, -58, 36, 56, 102, 79, -67, -85, -9, -57, 102, 29, -51, 32, -73, 43, 78, 100, 76, 8, 54, 63, 4, 35, -95, 24, 82, 5, -49, -99, -101, -50, -30, 45, 65, -86, -35, 66, 15, 80, 90, 24, -85, 66, 32, -25, 8, 12, 38, 72, 55, -4, -6, 20, 54, -79, 5, -39, -5, -96, -27, 56, -20, -95, -83, -75, -31, -94, -51, -1, -84, 91, -76, -76, 88, -9, -48, -10, -22, -64, -54, 90, -6, 90, 64, -64, -103, -34, 51, -28, -78, -84, -9, 63, 19, 21, 62, -32, -103, -26, 39, 40, -70, -84, -96, 77, -28, -63, -28, -51, -24, -10, 25, 11, -8, 31, -50, 8, 64, -34, -24, -10, -6, 21, 85, 79, -36, 22, 40, 100, 77, -73, 66, -3, -91, -32, 80, 42, 53, 43, -26, -26, -24, 61, -89, 58, 12, 95, 6, -30, 87, -36, -6, 27, 26, 32, 24, 10, -45, -67, 95, 98, 48, -29, -85, -13, 22, -36, 91, -24, -3, -18, -29, 95, 19, -34, -15, 99, -54, -91, 36, 29, -40, 12, -61, -29, -32, 47, 0, 7, 42, 4, -99, 80, 49, -54, -55, 44, 69, -97, 61, -14, -10, 47, 35, -56, 50, -89, -80, 79, -16, 89, -38, -38, -67, -39, 56, 13, -86, -71, -9, 1, -14, -19, -81, 30, -41, 91, 7, -70, -61, -29, -69, -70, -89, 47, 63, -53, 13, 21, -24, 56, -102, 47, 1, -24, -40, -99, -9, -82, -62, 43, 50, 102, -83, 89, 86, -44, -55, -12, -82, -91, -101, 88, 2, 31, -81, -90, 78, -72, -89, 98, -30, -39, 56, 96, 9, 58, 32, 15, -98, 25, 20, -1, -18, -47, 69, -55, -46, -50, -37, -62, 74, 68, -77, -41, 29, 16, 68, -62, -34, 96, -35, -13, 90, -9, 40, 62, 13, -13, 98, 42, 84, -75, -16, -62, -103, -101, 91, 57, -103, -5, 1, -31, -59, -81, -59, 41, 33, -97, 22, 37, -13, 54, -23, -21, -25, -96, -99, 52, -54, -80, 55, -92, 45, 26, -43, -40, 75, 64, -17, -100, -90, 82, 23, 6, -37, 62, 44, 3, 82, 25, -84, -69, 61, 46, 81, 95, 61, 60, -27, -94, -5, -65, -77, 63, -30, 26, 90, -68, -56, 12, -77, -38, 36, 89, -86, 6, 88, 19, -70, -50, -61, -73, -59, 21, 18, 45, 4, -36, 37, 31, -101, -82, -51, -60, -11, -31, 57, 12, -102, 80, -34, -93, -75, 104, 74, 47, -23, 72, 93, -65, -30, -54, 50, 67, 33, 4, -31, 71, -33, -41, -41, -4, -30, -23, 58, 20, 51, 87, 75, -85, 66, -65, 99, 99, 7, 79, -66, -71, -54, -91, 5, -32, 51, -83, 95, 47, 52, 5, 83, 104, 83, 85, 56, -19, -47, -16, -94, 5, -29, 93, 32, 14, -1, 101, -104, -56, -35, 59, 12, 11, 63, 41, -61, -18, -29, 12, -99, -35, 19, 83, 56, 99, -71, 75, 86, 73, 24, -87, -77, 34, -2, -36, -27, -61, 50, 49, 52, 7, -10, 45, -26, -84, -11, 86, 40, -28, -67, 69, -71, 4, 60, -19, 51, -43, 6, 40, -102, -80, -70, -21, -85, 48, -27, 5, -98, -54, -55, 84, 22, -18, 4, 84, 92, 66, -81, 62, 90, -75, 35, -99, 98, 52, 44, 81, -8, -45, -55, 57, -47, -46, 79, -16, 103, 92, 34, 28, 23, -44, 65, -17, 71, 3, 2, 98, 45, 25, -60, 78, -47, -4, -20, -84, 6, -83, 58, -9, -41, 42, -9, -74, 45, -50, -63, -34, 102, 93, 13, 97, 8, -14, 61, -63, -98, 60, -61, -51, 87, -18, -31, 39, -91, 82, -80, 29, 37, 87, 62, 87, 30, -15, 102, 0, 90, 100, 25, 59, 51, -73, 34, 1, 58, 80, -63, -29, -81, -17, -13, -86, 21, -60, 8, 88, 93, 37, -28, 39, -45, -97, 19, 20, 50, 47, -72, 39, 67, -90, 28, -15, -63, -58, 60, 62, 13, 21, -3, 94, -11, -89, 74, 77, 73, 91, -24, 84, 2, 30, 45, -67, 104, 42, -85, -54, -102, -84, 45, 103, 16, 44, -68, -65, -55, -66, -23, 51, 56, -57, -45, -90, 81, -60, -68, 22, 71, -15, -31, 66, -75, 51, -95, -42, -76, 50, -90, 93, -47, -70, -16, -82, -102, -53, 21, 81, 61, -78, -11, 25, 100, -91, -55, -56, -26, 101, -49, 88, -55, -87, 39, -78, -93, -49, -3, 36, -50, 46, 94, -81, -52, 13, -20, 77, 77, -91, 44, 94, 61, 99, -55, 49, 62, 70, -82, -102, 64, 74, 76, -36, 41, 0, -42, -21, 43, 56, -37, -24, -44, -31, 16, -88, -37, 39, -59, -87, -56, 90, 32, -70, 87, -80, -93, -58, -50, 42, 72, 86, 61, -40, -41, 64, -76, -28, 80, -4, 44, 37, -61, 72, -90, -13, -56, -81, 66, 103, 75, 66, -83, -12, -11, -80, -19, -24, -3, -31, 43, 39, 47, 10, 102, 32, 55, 88, -59, 16, 96, -76, -37, -33, -74, -3, 78, 72, -2, -64, -58, -98, 96, -55, -89, -80, -37, -64, 82, -70, 36, 23, -72, -53, 44, 33, 45, 29, 70, -23, -47, 87, -48, -101, 50, 93, -29, 21, 9, 60, -57, -4, 55, 1, 41, -61, -24, 83, 16, -55, -19, 93, 87, 7, 50, 102, -58, 87, -7, -36, -69, -77, -56, 82, 34, -11, -14, 102, -17, -62, 101, 31, -57, 11, -78, 49, 48, 88, -35, 70, -20, 36, -68, -41, 23, -42, 60, 14, -37, 31, 0, -86, 3, -9, -82, -88, -28, -23, 60, -9, -82, -6, -45, -43, 43, -70, -87, -62, 83, 18, -28, -57, -60, -91, 64, -68, 79, 76, 49, 26, 18, 27, 61, 89, 66, 81, 79, 93, 100, -16, 18, 0, -103, 49, 42, 48, 36, 59, 44, 13, -46, -28, -29, -66, -72, -37, 77, -25, 67, -14, -89, 39, 75, 84, -11, 64, 100, -10, -40, 8, 41, -67, 79, 96, -99, 45, -40, 34, -4, -77, -15, 41, 74, -87, 92, -8, 29, -32, 29, 10, 93, 66, -95, -81, 65, -70, -5, 79, -101, 17, 79, -90, -19, -37, -28, -57, -84, 70, 49, 96, 61, 74, 37, 72, -15, -22, -99, 45, -81, -29, -51, 98, -34, 85, -22, -56, -101, -61, 19, -52, 20, 89, 66, 20, -90, 95, 7, -99, 50, 35, -47, -6, 62, -20, 53, -46, -38, -87, 5, -16, 72, 29, -101, 38, -6, 20, 99, 93, -92, -18, -9, 94, 45, -40, 33, -77, -81, 16, -53, -45, -35, 27, -63, -8, -18, 79, 52, -99, -8, 93, -51, -58, -59, -57, 32, 41, 103, -25, 50, 92, -41, 43, 59, 6, -77, 12, -5, -33, 19, -1, 86, -70, 10, -73, -58, 97, 27, 85, -82, 33, 98, -83, 85, -35, 40, 89, 0, -74, -5, 9, -22, 74, 35, 77, -72, -64, 100, -43, -9, 18, 83, 44, -55, 16, 82, -71, 76, 26, -2, 10, -102, -30, 50, 68, -84, 65, -34, 11, -94, -89, -28, 72, -96, -5, -89, -59, -84, -24, 71, 26, 92, 70, -12, 46, 16, 37, 47, -64, 14, 65, 17, -28, 56, 46, -56, 45, 66, -50, -36, -102, 26, -94, -39, 17, -7, -2, -60, -60, 9, -36, -64, 58, -18, 11, -60, -32, -86, 94, -28, -71, 65, -47, 46, 55, -71, -50, -24, 25, 5, 61, 98, 22, -100, 94, -50, -83, 82, 9, 43, 99, -70, -100, 31, -7, 81, -24, -60, 39, 24, 19, 68, 55, -22, -44, 13, 32, 39, -25, 54, -77, 14, 73, 68, -58, 94, 89, -65, -42, 67, 81, -84, -12, 65, 5, -34, 29, 89, -25, -87, -86, -72, -39, 5, -96, 71, 62, 6, -83, 24, 32, -16, -11, -82, 84, 26, 19, -55, 86, 6, 9, -51, 45, -5, 50, 91, -78, -65, -97, 6, -67, -43, 39, 63, 65, 65, -17, 52, 57, -95, -74, -53, -44, -94, -71, -12, -102, -31, 97, -79, -1, 5, 4, 94, 68, -101, 99, 83, -92, 40, -3, -64, 98, -5, 101, 79, 19, -83, -44, -104, -104, 4, 46, -50, 19, -65, 89, 95, 58, -41, 87, -46, -45, 53, -54, -81, 43, 83, 102, 61, -64, -49, 79, -91, 10, -34, -88, -1, -70, -92, -99, -31, 55, 20, -52, -13, -68, -73, -93, 13, 99, -21, -74, -81, -33, -53, 17, 53, -99, -87, 73, 76, 4, 32, -81, -49, -21, -36, -76, -74, -95, 94, -21, -27, -20, -72, -95, 50, 73, -68, 25, 5, -60, -39, 43, -20, 78, 39, 27, -19, 94, 101, 79, -19, -17, -92, 85, 30, 95, 79, -76, -12, 1, 6, 20, 0, -56, 49, 105, 34, -36, 77, -15, -91, -42, 76, -44, -53, -29, 81, -59, -18, 65, 7, 21, -94, 63, 44, -8, 21, -73, 68, 13, -7, 86, 1, -65, -70, -42, -80, -56, -28, -97, 91, 97, -3, 68, 99, 71, 11, 7, 97, -2, -21, -10, -4, -79, 6, 73, 32, 8, 69, -96, -101, 26, -89, -4, -71, 59, -49, -7, 24, -89, 7, -80, 44, -13, -40, 37, -101, -5, 18, -9, -30, -11, -50, 47, 73, -3, -81, 63, -55, -26, 58, 101, 39, 93, -56, 5, -50, -35, 29, 48, 45, 54, 65, -102, 34, 14, 58, -81, 58, 22, 98, -90, -97, 22, 22, -71, 36, -53, 87, 12, 56, -68, -50, -95, 45, -92, 81, -38, -59, 58, 80, 53, 84, 9, 55, -29, 30, 16, -38, -15, 69, 94, 52, 33, -13, 46, -15, 15, 27, 51, -81, -62, 55, 85, -39, -33, 26, 17, 42, 53, -40, 68, 87, -43, -37, 53, 83, -36, -82, -73, 92, -11, -59, -59, -28, 43, -13, -77, 12, 71, 2, 87, 14, 50, -51, 68, -17, -20, 24, 35, -13, 5, 20, -53, 76, 26, -56, -82, -24, -44, -6, -10, -84, -11, -69, 53, -75, 98, -92, 92, -52, -38, 28, 99, 48, 96, 3, 101, -94, 7, -83, -22, -61, -41, 101, -14, 19, 83, 24, -95, -85, -54, 38, 2, 63, -76, -43, 56, -5, 28, -57, 14, 43, 81, -101, 32, -43, -12, 78, -38, 18, 55, -99, 31, -89, 74, 52, 36, 14, 78, -76, 44, -62, 39, 77, 45, -4, 38, 35, 46, -56, 16, 29, -78, -63, 85, -31, 16, -83, 7, 75, -49, -98, -9, -5, 59, 44, -74, -29, -15, 6, 46, -100, -29, -89, -4, -52, 27, 39, -16, -39, -68, 89, 17, 65, 33, -60, 32, -70, 64, 35, -13, 43, 0, -45, -86, -83, -59, 15, 13, 34, 60, -1, -13, -61, 17, 68, 56, -73, 91, 55, 38, -22, -20, -62, 38, 19, -101, -7, 52, -74, -67, -47, -30, 48, 65, -104, 100, 55, -60, 42, -55, 29, 32, 90, 86, 3, 24, -56, 26, -7, -32, -24, -51, 60, 93, 31, 10, 60, -15, -26, -92, 24, -50, 32, 25, -67, -29, 46, 56, -83, 49, -29, -83, -95, 73, -80, -87, -64, 17, 47, -18, 28, -19, -62, 33, -22, 10, -24, 81, -63, 30, 84, 82, -31, 85, -5, -1, 88, -23, -47, -27, 77, -94, -8, -32, -7, -34, 11, -100, 7, -89, 51, 19, -73, 28, 98, -46, -83, -85, -15, 64, 20, 103, 98, -15, 9, 11, 62, -95, -8, 79, 51, 81, 94, 43, 51, 17, 99, 46, -13, -84, 97, 37, 88, -31, -28, -31, -74, 9, 36, 64, -58, -12, 22, 8, 18, 82, -102, 15, -57, -25, -78, -32, -62, 47, -60, -14, -89, 20, -40, -43, -78, 11, -100, 33, -10, -77, 92, 53, 101, -27, -61, 16, -35, -76, 40, 100, 90, -63, 43, 5, -18, -92, 10, -74, -99, 36, 76, 95, -42, 81, 8, -84, -58, -55, 101, -11, -17, -86, -50, -93, 26, 35, -17, 54, 67, -24, -34, 10, 36, 86, 26, 67, 38, 25, -41, 72, 24, 47, -32, 59, 82, 5, 30, -16, 14, 83, -20, 92, 39, 73, 28, 92, 21, -26, 93, -71, -95, 93, -88, -101, 22, 21, -7, 90, -23, 20, -72, 25, -56, 51, 45, -81, 4, 51, 96, -10, 42, 17, 44, -87, 104, 22, -67, 24, -67, 88, 10, -30, 12, 50, -75, 5, -16, 42, 87, 91, -25, 22, -68, 21, 5, -56, 90, 3, -36, -63, -11, -84, -24, -22, -103, 44, 75, 22, -57, -12, -26, -46, -101, 55, 98, -59, 89, -85, 24, -75, 4, -50, 96, -8, -18, 75, -102, -39, 78, 62, -25, 68, -3, -92, 103, 49, -44, 18, 92, -98, -58, 95, -33, -8, -12, 38, 21, 46, -19, 92, 88, -95, -60, -54, 10, -68, -51, 71, 51, 63, 40, -53, -38, -46, 19, -48, -90, 46, 87, 66, -39, 40, -67, 21, 76, -45, -66, 53, -38, 66, -65, -49, 64, 28, 101, -98, 67, 56, -47, -30, -85, -5, 76, 24, 43, -58, -7, 49, 15, 23, 51, 59, -23, -46, -79, -25, 71, 43, -69, 48, -11, 12, -102, 63, 85, -23, 10, -15, -51, 51, 91, 60, -102, -95, -1, -73, 2, 79, 5, -77, 39, -44, -77, -72, -18, -42, 73, -96, -14, -69, 99, -15, 63, 84, 57, -61, 37, -7, -55, 53, 72, -7, -40, -77, -15, 0, 96, 95, 25, 101, -62, -60, -32, 73, 59, -22, -54, 44, -31, 86, -96, 11, -56, -65, -103, 46, 99, -83, -85, -30, 52, 39, -71, -95, 97, -29, 69, 32, -19, 31, 22, 17, 86, -69, -28, 90, 88, 22, 23, 56, 37, -9, -85, -19, -72, -60, -9, -16, 45, 17, -37, -50, -53, 3, -7, -60, 77, 33, 73, 70, 48, -24, 68, 93, -43, -38, -67, -16, 11, -61, -27, 71, 98, -60, -97, -11, 41, 29, -59, -60, 31, -87, -57, -47, -55, 71, 95, 91, 92, 32, -90, 16, -5, -16, -19, -29, 39, -30, -14, -91, 96, -25, -16, -33, -85, 54, -11, -50, 64, 96, 45, 93, -69, -91, -73, 67, 42, -49, 15, -95, -46, -66, -59, 103, 47, -47, -37, -83, -87, -56, -44, 34, -44, -15, 42, 7, -87, 61, -22, -103, -52, 54, -96, -27, 55, 95, 9, -18, -28, 28, -12, 99, 3, 79, -41, 99, -20, -14, -93, 36, 1, -40, -79, 6, 103, 92, 26, 82, 25, -57, -69, 45, -7, 72, 75, -26, -100, -56, -85, 73, 7, 69, -57, 22, 96, 30, -65, -49, -32, -68, 95, 38, -64, -60, -21, -28, -63, 46, -60, 47, 6, -31, -34, 42, 96, 49, -99, 41, 92, -33, 34, 79, 45, 59, -41, 40, -88, 45, 98, 32, 85, 63, 99, 64, 22, -96, 25, 28, -94, 76, 8, -61, 25, 32, -38, 14, 61, -46, 46, 34, -77, -37, -78, 41, 101, 31, 4, -75, 0, 14, -26, -25, 35, 59, -92, 54, -79, -31, -103, -100, 75, 57, 87, -3, -35, 90, -75, -71, 103, 76, -57, -23, 48, 7, 56, 14, -14, -10, 14, -41, 28, -59, 17, 51, -2, 45, -101, -21, -76, 3, -77, 86, -51, 87, -34, -54, -91, 38, 18, 24, -51, -40, 104, 81, 17, -2, -23, -101, 89, -56, -83, 51, -86, 16, 73, -59, 6, -80, 101, 6, 12, 42, -1, 102, -8, -63, -51, 20, -91, 38, -72, -85, 102, 85, -81, -9, 76, -45, 98, -96, 49, -41, -59, 34, 90, -6, -55, -63, 41, -78, 83, -49, -74, 22, 19, -75, 100, 13, 23, 80, -25, 85, 41, -46, -7, -98, -49, 37, -7, 25, 93, 31, -63, -33, -93, 101, 15, 22, -62, -37, -87, -61, 88, -27, 28, -37, -47, -34, -86, 83, -23, 57, -19, 44, -76, 23, 91, 79, 12, -101, 68, -25, 38, 14, -89, -66, 55, -94, 49, 33, 62, 29, 60, 37, -44, -29, 91, -68, -27, 88, 58, 56, 2, 33, 35, -54, 81, -46, 22, 62, 55, -48, -52, -74, 84, -84, 12, -78, -69, -37, 51, 95, -70, 69, -61, -41, 0, -61, -16, 86, 6, 36, 7, 38, 58, -45, 9, 28, -19, 21, -70, 26, -88, -13, -81, 12, -96, 77, 23, 20, 8, 81, 12, -19, -64, -69, 36, -17, 62, -81, 58, 60, -102, -36, 65, -19, 77, -74, -78, -99, -27, -63, -8, 51, -38, 74, -100, -17, -50, -36, -73, 47, 21, 30, -94, -80, 20, 27, 15, -69, 60, -51, 7, -61, 51, -26, -88, 4, -76, 64, 66, 10, 98, -96, 22, -103, 7, -85, 83, 18, -73, 88, -75, 67, -7, -97, -76, 13, 78, 87, 44, -74, 100, -58, -72, -13, 99, 14, 34, -89, -55, -61, 38, 63, -27, -79, -75, 47, -31, -56, -21, -86, 36, -11, 58, -89, 67, 78, 33, -90, 63, -96, 15, 26, 87, 28, -12, 12, -25, -74, 90, -1, -11, 55, -83, -80, 23, 34, 3, 16, -82, -69, 70, -64, -76, 16, -76, 76, -49, -91, 34, 43, -18, 74, -73, -92, 68, 100, 25, 35, -65, 49, 3, -54, -8, 16, 48, 18, 95, -21, -13, 40, 4, -43, 70, 28, -39, -67, 77, -78, -63, 79, -19, -69, 38, -41, -65, 82, -74, -2, 83, -75, 8, -67, -91, -72, -81, -87, 15, 100, 97, 47, 93, -8, 76, 4, 96, 31, 41, 41, 35, 67, 4, 53, -50, -60, -52, 3, -103, -99, 9, -19, 49, 8, -40, -63, -56, 25, -74, -96, -28, 59, -67, 12, -103, 99, -68, 15, -89, 18, 57, 51, -41, -75, -33, 69, 99, 87, 15, 36, 11, 82, -53, 58, 51, -19, 35, 57, 44, 104, 17, -1, 5, 99, 81, 84, -95, -25, 54, -39, -44, -38, -3, 71, -64, 30, 58, -3, -58, -26, 13, -24, 82, 63, 57, 100, -50, 59, -38, -30, -60, 26, 96, 8, 97, -71, -19, -31, 96, -65, -28, 102, 90, 53, -70, 72, -54, -103, -96, -47, 83, -22, 103, -96, 19, -37, -80, 83, 2, -9, 60, 71, -47, 22, -41, -61, -102, -73, -33, 8, -92, 22, -73, 61, 14, 95, 66, -62, 13, 92, 98, -73, 20, -6, -36, 91, -36, 14, -52, -25, -36, -33, -84, 59, -85, -18, -64, -49, 37, 10, 18, -67, 14, -56, -70, 50, 17, -46, 36, -45, 14, 98, -6, -8, 24, -13, 69, 61, -48, 76, -50, 35, 70, -98, -11, -13, -29, 88, 15, -28, 42, 80, 44, 83, 80, -36, 45, -4, 56, 85, -78, 71, 16, 88, -41, -61, 19, -17, -100, 35, -46, -21, 77, 60, 102, -74, 8, -87, -43, 13, 40, -57, 48, -66, 89, -80, 61, 11, 102, 56, -17, -28, -74, -38, -60, -34, 17, -70, 23, -66, 88, 39, 40, 90, -56, -94, 54, 74, -37, 13, -16, 52, 56, 77, 9, -91, -52, 18, 6, 28, -102, -82, -83, -18, -103, -74, 39, 12, -41, -86, -42, 71, 60, 38, 13, 66, -25, -41, -35, 44, -66, 95, -67, -12, -99, 15, 63, -29, -17, -57, 8, -56, 82, 56, 5, 22, 6, 81, -5, 18, 7, -13, 53, 25, 95, -91, 61, 56, -77, 63, 62, -88, 7, -47, -63, 76, 89, -62, 59, 100, -94, -70, 47, -33, -50, -3, -93, -32, -3, -33, -68, 83, 29, 50, 22, -44, 45, 87, 66, -13, 85, 62, 11, 12, 66, 67, 72, -30, -52, -65, -3, -48, 72, 15, -48, -80, -72, 44, -26, 33, 32, 83, 24, -20, 33, 8, 15, 81, -34, 99, 22, 63, 73, 67, -56, 80, -32, -3, 102, 72, 40, -15, -59, -86, 25, -16, -20, 66, 5, 71, 77, -36, 99, -68, 18, -38, -35, -38, 9, -22, 82, 10, 70, 29, 69, 82, 67, 28, -19, -39, -4, -53, 50, -35, -23, -90, -86, -85, 74, 55, -9, 8, -69, 59, -2, -82, 58, 98, 102, 56, 6, -84, 66, 76, -28, 91, -91, 83, 83, -89, -31, 94, 23, -26, 59, -87, -50, -12, 66, -55, -83, -17, 60, -35, 44, -23, -59, 23, -35, -91, -68, -89, 83, 66, 83, 8, 61, -84, 6, -5, -100, -58, 30, 31, -25, 54, -36, -28, 25, -25, 56, -12, -92, 32, -92, 22, -33, -63, -74, 82, 22, -82, 35, -81, 91, 92, -71, -24, 8, 42, 73, 60, 81, -94, -59, 20, 12, 18, -30, -12, 90, -3, 28, -81, 91, -51, -34, -51, 14, 14, -58, 45, -35, -35, -79, -55, 72, 69, 38, -53, -42, 19, -89, 79, -43, 100, 19, -18, -84, 0, 9, -50, -51, -41, 43, 98, -7, 99, 48, -3, 59, 38, 57, -99, 23, -23, -86, -57, 90, -83, 82, -31, 45, 43, 41, 13, 27, 90, 95, 75, 81, -77, 79, -48, -28, -48, -38, -36, -102, -41, 47, -38, 34, -34, 46, -28, 19, -41, 88, -45, 16, -60, 20, -17, 52, 72, 69, 2, 47, 54, 78, 58, 102, -70, -70, -9, 65, -57, -51, 76, -46, 0, 85, -21, -94, 19, 56, -75, 19, -87, -18, 43, -38, 10, -57, -92, 67, 95, -71, -75, 83, 47, -47, 75, -45, -66, 94, 37, 45, 60, 42, 21, -53, 35, -95, -56, -62, 52, 46, 74, 25, -1, -39, -78, -6, 39, 53, 72, 76, -52, 33, 27, -34, 6, -43, 81, -102, -74, 3, -50, -19, -61, -81, -96, 2, -70, 63, -70, -63, 26, 57, 37, 26, 86, 97, 0, 9, -53, 64, 30, -32, 69, 12, -82, 33, 39, -88, -64, 60, -60, -10, -62, -47, 9, -93, -96, 2, 79, 99, 83, -4, -38, -42, 7, -84, -14, 80, 7, -64, -42, -1, 31, 53, 96, 84, -1, -85, -42, 37, -8, 27, -99, 57, 5, -69, -64, -79, 101, 80, 72, 38, -45, 18, 60, -53, -96, 39, -94, 11, -32, -41, 31, 48, -37, -3, -44, -25, -3, 79, -18, -46, 87, 81, 13, -24, -91, -50, 13, -81, -59, 79, -102, 33, -36, -69, -11, 87, -1, 62, -53, -38, -82, -65, -70, -95, 51, 5, -22, -23, -75, 86, -50, 61, -22, -68, 72, -73, -24, -54, -31, -78, -2, 52, 38, 70, -75, -3, -64, -42, 78, 17, 88, 96, 53, -97, 57, -101, -85, -87, 82, -2, -59, -61, -13, -33, 83, -41, -39, -66, -93, -7, 70, -64, 52, -76, -102, 74, 34, 62, 39, -12, 68, -100, 46, 59, 24, -34, -103, -18, -5, -37, -13, 99, -49, 86, -50, 26, 31, 56, -10, -62, 10, -63, -69, -51, 52, 76, 12, 42, 79, -91, 61, 92, 16, -38, 76, -85, 67, 38, 30, 22, 23, -50, -6, 24, 2, -43, -92, 3, 71, 22, -76, -14, -19, 16, 102, 99, -38, 78, -37, 73, 39, 60, -18, -74, 63, -24, 75, -93, 14, -36, 86, 1, 100, -43, -23, -54, 71, -22, 39, -79, -80, -50, -73, 96, -25, 40, 53, 83, -20, 1, -42, -78, -94, 16, -87, 72, -75, 63, 18, -44, 65, 87, -101, -19, -95, -102, 58, 13, 68, 21, -23, -25, 100, 47, -57, 45, 79, 97, -41, -79, -76, -2, 19, -79, 103, -78, 17, 37, -59, -90, 18, -14, -45, -44, 59, -1, 92, -94, 28, -49, -12, -17, 43, -23, -59, -52, -88, -55, -39, -82, 103, -97, 8, -50, 93, -73, -95, 63, -43, 24, -8, 58, -26, -50, 92, 77, 76, -100, 32, -19, -74, -19, -96, -68, -40, -22, -91, -34, 39, 19, -99, -64, -58, 26, 8, 94, 48, 9, -58, 36, -49, -13, -80, -80, 64, 42, 86, 45, -35, 104, 50, 2, 33, 85, -87, 52, 20, 95, -93, 31, 41, 41, 99, -1, -55, -19, 5, -28, 40, 99, -16, -57, -38, -42, -87, -33, 60, 28, -22, 64, 40, -18, -12, -6, -35, -7, 88, 38, 57, -30, -101, 29, -98, -92, 86, -23, -81, 46, -74, 12, -80, -45, -54, 71, 70, 105, 5, 46, -41, 48, -40, 49, -99, 20, -75, 59, -10, 24, -33, 70, 60, 30, 42, -52, 61, -45, -59, -75, 57, 9, 67, 53, -18, -26, -39, -85, -68, -58, 32, 102, -33, 104, 29, 40, 3, 15, -75, -73, -42, -24, -3, 41, 92, 82, 18, -66, 93, 12, -4, -31, 45, -80, -28, 86, -65, 95, 32, -3, -36, -93, -42, -62, -30, 7, 83, -44, 75, -100, 80, 28, -73, 50, 90, 6, 24, 20, -14, -54, -27, 98, -59, 61, 87, 87, -35, 102, -44, -47, -102, -36, 0, -27, 100, 74, 86, -38, -83, -30, -90, -81, -24, 9, 70, 73, 81, -33, 33, -92, -98, -90, -5, -60, 36, -34, 74, -15, -87, 0, -8, -72, 49, 103, 35, -71, 49, -78, -39, 47, 101, -84, -75, -36, -74, -91, -32, -36, 17, 21, -27, -82, -71, -5, 43, 2, 85, -35, -6, -35, -63, -35, -58, 48, -77, 74, 19, -7, 6, 41, 66, 13, -9, -78, 90, -62, -13, 76, -17, 74, -78, -61, 13, 40, 100, 8, -19, 14, 35, 21, 94, 66, -98, 92, -54, -93, 1, -14, -47, -27, 42, -86, 19, -71, 15, 28, 64, 91, 48, 14, 66, -67, 30, -101, -67, -88, -53, 51, -37, 26, -21, 71, -2, -4, 88, -39, 51, -10, 8, 38, -16, 64, -86, 8, -64, 13, 48, -70, 4, 64, -41, -69, -80, 70, -87, -61, -49, -52, 51, 36, -54, -73, 18, 27, -45, -27, -13, -9, 50, 86, -100, -14, 80, -63, -15, -36, 98, -35, -22, 1, 31, 67, 55, 58, -88, 93, 18, 14, 42, 8, 87, -1, 80, -17, -65, -62, 83, -55, -48, -8, 49, 20, -33, -96, -54, -31, 72, -65, -63, -34, 55, -38, -91, -63, -78, 101, 19, -14, 16, -47, 85, 12, -101, -79, -38, 43, -54, -50, 88, 40, -49, 51, -74, 38, 50, -29, -44, -62, -46, -61, 29, 37, -65, -44, 33, 42, -89, 103, 99, -10, -61, -99, -64, -82, -96, -30, 11, -47, 21, -8, -95, 29, 64, 29, 84, -87, -40, -82, 82, -43, 85, 57, 55, -4, 59, 18, -86, 56, -48, -103, 31, -46, 42, 71, -102, -66, 56, -86, -69, -15, 94, -53, -64, -89, -24, 65, -55, 22, 93, 69, 41, -66, -38, 57, 62, 96, -99, 37, -25, 44, 55, 95, -10, 38, -56, -70, -89, 89, 70, 38, -26, 56, 10, 21, 63, 83, 79, -46, 21, -82, -50, -29, -48, 63, -63, 11, 10, -40, 101, 49, -35, -44, 22, 15, 34, -75, -76, -1, -40, 47, -61, -53, 69, -36, 68, 1, 17, -85, 61, -79, 34, -101, 3, 104, -65, 54, 52, 4, -90, -4, 100, 54, -60, -46, 95, -25, 74, -65, -54, -61, 76, 51, -51, 104, -42, -34, 29, -71, -81, 74, -28, 12, -39, -103, -58, -90, -27, -98, -102, -22, 32, -97, -67, 64, -100, 67, 55, -33, -70, 94, -5, 45, 49, 28, 42, 6, 47, -74, -1, -84, 1, 1, 92, -58, 81, -78, -80, -76, -4, -11, -78, 46, 57, -68, 82, 68, 13, -64, -11, 69, 30, -103, -30, 29, -20, -64, 3, -85, 29, 88, -61, -39, -58, -58, 95, 97, 30, 94, 41, -82, -40, -97, 34, 31, -14, 62, 10, -76, -2, 44, 90, 89, -91, 45, -3, -38, -75, -32, 48, 11, 95, 102, 4, 26, 10, -27, 83, -73, 24, 101, -35, 85, -76, -83, -62, 21, -99, 55, -63, 39, -47, -41, 89, 100, 93, 73, 81, -75, -83, 32, 64, -68, -14, -38, -56, 87, -101, -91, -7, 96, -97, -29, -93, -80, -4, 36, 70, -34, 68, 72, -31, 31, 33, 71, 27, -65, 90, 101, 98, 40, 41, 29, -26, 96, 44, 23, -68, -26, 56, 19, -102, -23, 80, -11, 102, 48, 88, 35, -7, -16, -68, 78, -92, -39, 61, 11, -44, 21, 15, 92, 32, -56, 94, 96, -39, -76, 66, -65, -11, -56, -58, 86, 90, 75, -33, 29, -3, 21, 6, 37, 94, 31, -99, -74, -30, -29, 94, -40, 48, 6, 52, 30, 73, -90, 6, -17, -104, -45, -6, -46, -20, 104, 52, 83, 39, 81, -100, -20, -74, -13, -38, -40, -7, -9, 86, 66, 5, 56, -33, -44, 6, -86, 29, -20, -104, -49, 5, -32, -17, 17, 44, 42, 17, 100, -22, 96, -103, 14, 17, -98, -56, 58, -1, 77, 24, 67, -57, -20, -90, -34, -40, 99, -1, -102, 50, 96, 2, 85, 23, -4, -19, 98, -82, 98, 94, -83, -76, 51, -90, 71, 103, -101, 31, 51, -34, 50, 48, -37, -64, 40, 46, 30, -80, -4, 11, 65, 66, -10, 27, 49, 76, -84, 6, 12, -6, -59, -93, 56, -80, 89, 57, 88, -66, 80, 59, -28, -42, 7, -7, 87, 37, -9, 5, 72, 27, -49, 63, 56, -49, -64, 50, -47, 82, -29, 69, -78, -11, 81, -98, -59, 60, -94, 1, -3, 45, -60, -83, -72, 32, -66, 20, 62, -19, -74, 8, 35, 89, -30, -54, 33, 20, 97, 27, 50, 45, -19, -82, -16, -16, -28, -38, 47, -96, -95, 11, 39, -34, -5, 101, 16, -67, -10, 33, -39, 50, -15, -90, 102, -88, 13, 78, 75, 21, -16, -2, -100, -28, -37, 46, -29, 35, 67, -98, -92, -84, 70, -99, 59, -63, 0, 0, -73, 66, 52, -51, 79, -62, -29, 2, 10, 77, -48, 62, 90, 25, 84, -44, -12, 22, -81, -20, -70, -27, 62, 29, 80, 12, -75, 97, 81, -62, 62, -64, -45, 93, -58, 87, 20, -91, 101, -8, 93, 59, 34, -25, 74, -103, 45, 75, -81, 34, -89, -3, -67, -95, -58, -74, 69, 19, -95, -46, 30, -45, 12, -99, 101, -77, -86, 57, -19, 78, 41, 39, 4, 38, 91, -67, -48, -93, 30, 43, 63, -91, -62, -4, -76, 84, -33, 94, -63, -101, -63, -79, -102, 74, -14, 98, -70, -74, 102, -71, -36, -91, -16, 34, 29, 41, -91, 68, -35, -88, -57, -62, -62, 21, -19, 64, 5, -101, -55, -15, -32, -96, 58, 95, 57, -7, 66, 58, -23, 28, 49, 53, -44, -57, 5, 62, 81, 86, -100, -78, -99, 49, 36, -27, -93, 51, -29, 87, -90, -29, -42, 85, -98, 14, 81, 79, 7, -30, 92, -100, 31, 1, 90, -89, 33, 34, -100, -57, 74, 24, -13, 100, 5, -58, 57, 65, -84, -54, -73, -26, 77, -15, -96, 68, -43, 50, 37, 79, 80, -44, -60, -62, 87, 80, 97, -44, -5, 77, -42, 74, 78, 17, -94, 45, 10, 25, 64, 11, -86, 25, 78, 54, -62, 15, -65, -32, 66, -84, -12, -66, -85, 5, 24, 43, 40, -40, 10, 7, -53, 71, 20, 77, -51, 40, 25, 72, -18, 80, 14, -33, 91, -56, 49, -96, -21, -85, -15, -5, 4, 84, 29, -36, -23, -43, 19, -19, 89, -15, 101, 100, -1, -55, 77, 11, 97, -78, -63, -43, -40, -24, 88, -11, 47, 76, 73, 34, -50, -49, 8, 28, -73, -97, 0, 54, 38, -19, 50, -59, 24, -38, 47, -66, 30, 21, 98, -15, 34, 70, 98, 12, -97, -63, -83, -29, -71, 50, -57, 97, 5, 38, 70, -47, -90, 66, 82, -52, -77, -49, 62, -47, 39, 29, -73, 15, 99, 9, -76, 78, -93, -3, -39, 59, -104, -9, -31, 80, 98, -95, -64, 71, -30, -28, -35, -88, 37, 13, -21, -70, 49, -36, 19, 43, -51, 26, 102, -56, -79, 48, -64, -93, 12, -81, -84, -97, 36, -3, 65, -10, -43, -47, 89, -71, -78, 0, 79, 3, 17, 75, -53, -88, -4, 45, -1, -73, 21, 96, 19, -64, -87, 25, 46, -101, 24, 77, -27, 20, 17, 23, 47, -15, 94, 22, 47, 40, -32, 103, -43, -16, 35, 48, -27, 50, 63, 76, -18, 62, -8, -51, 91, 100, -52, -98, 45, 44, 17, 92, 30, 64, 27, -10, 89, -74, 68, -88, 61, 72, 90, 62, 18, -45, 20, 73, -68, 23, -16, -16, -12, -91, -97, -10, 90, 87, -52, 3, 62, -6, -29, -75, -21, 34, 78, -96, -39, 19, 82, -86, 11, -12, -97, -34, -68, -85, -71, 26, -70, 90, 49, -31, 23, -96, -97, 70, 83, -24, -1, 69, 64, 53, 56, 54, -100, 54, 57, 103, -20, -95, 92, 80, -95, -27, 62, -8, -16, 55, -4, 57, -83, -17, -88, -68, -90, 47, 11, -28, -4, -78, -74, -47, -95, -97, -92, 91, 71, 76, 21, 77, -57, 83, 72, 17, -66, 49, -90, 57, 40, -18, -74, 86, 33, 12, -53, -69, -87, 68, -100, -31, 21, 85, 35, 94, -22, 32, -23, -88, 16, 39, 93, -44, 56, 83, -20, 52, -1, -53, 75, -43, -84, -28, 102, -63, -52, 78, -30, -54, 18, -7, -54, -72, -88, -69, 46, 13, 36, -52, -14, -40, -67, -94, -64, -33, -24, 76, -2, -99, -22, -3, 62, 6, -6, -89, -101, 48, -40, -64, 88, -39, 100, 57, -36, -20, 90, 74, -52, -38, 103, -56, -52, 52, -74, -62, -42, -47, 30, -60, 77, -33, -54, -14, -84, -30, 56, 92, -103, -9, 10, -44, 14, -32, -68, -69, 93, 26, 79, 56, -51, -82, -15, -9, 102, 14, 75, 20, -4, 71, 23, 97, 10, 90, 14, 35, -84, -65, -93, -89, -97, -38, 18, -92, 62, 29, 64, 76, -70, 97, 58, -27, -95, 58, -82, -75, 103, 50, 25, -27, -33, -70, -99, 67, -91, 6, 43, 10, 44, -2, -78, -47, -74, 78, -17, -81, 65, 28, 97, -68, -9, -30, -81, 21, -11, 96, -74, 53, 83, 41, -62, -31, 75, -93, -28, 69, 37, 94, 82, 36, 94, 56, 8, -102, -76, 19, -101, 44, -81, -81, -10, 63, -74, 2, 40, -100, 13, 70, 48, 40, 84, -14, 8, 70, 35, 53, 15, -69, 44, 49, -31, 5, 95, -31, 102, -68, -99, -103, -78, -32, 68, 84, -28, 43, 2, -76, -2, 40, -94, 76, -41, 56, 63, 34, -54, -90, -42, -75, -97, -70, 28, 23, 39, -76, -48, -99, 31, 39, -29, -14, 89, -40, -36, -36, -44, 86, 104, 100, 72, 52, 64, 95, -90, -48, 57, 7, -49, 94, -40, -57, -47, -7, 75, 63, -68, -3, -35, 91, 63, -52, 97, -84, -4, 45, 12, -98, 43, 80, -60, 47, 51, 67, -91, -53, -5, -70, 37, -46, -13, -96, -100, 93, 78, -85, -17, 51, -35, 11, -34, 38, 38, 70, 43, 54, -11, 13, 70, -42, -34, 33, 37, 64, 50, 49, -35, -89, 12, -2, -49, 72, 45, -63, -62, 43, -75, -70, -6, -60, 52, 68, -67, 39, 51, 6, -72, 32, -58, -80, 13, -99, -80, -25, 102, -25, -8, -100, -24, 99, 14, 102, -16, -89, 54, -30, -65, 49, -18, -5, -9, 61, 74, 33, 50, 97, 59, 67, 6, 22, 52, -71, -73, -74, -60, -102, 54, 66, 13, -7, 74, -50, -22, -88, -14, 72, -27, 42, -92, -24, 5, 81, -77, 22, 25, 83, -45, 34, 42, 56, -82, -11, -56, 101, -20, 100, 85, 76, 92, -71, -14, 24, -85, -41, -79, 44, -72, 24, 69, 101, -11, 55, 40, 34, -74, -103, 95, -10, 93, 29, -103, -63, 101, -102, 97, -2, 37, 24, 102, -9, 102, 38, 79, -29, 38, 81, -59, 11, -7, -101, -10, 9, 32, -35, -45, 93, 72, 24, -80, -4, 0, -25, -3, 76, -25, 28, 38, -4, 69, -21, 10, 2, -50, 55, -19, -18, -11, -56, -49, -29, -58, -70, 2, 67, -101, -49, -4, 98, -44, 56, -60, -76, 85, 18, -81, 62, 90, 60, -71, 67, -88, -40, -90, -63, 26, -8, 61, 30, 66, 32, 100, 104, -80, 21, -96, -16, 56, -70, -90, -24, 24, -88, 33, -39, -96, 95, 15, -57, -58, 20, -25, -71, 103, -53, 75, 77, 26, 20, -11, -55, 40, 7, 102, 40, 87, -55, -25, -59, 97, -90, 25, 68, -90, -6, -101, -65, -102, 81, -16, 6, -45, -63, 94, 55, 66, 79, 42, 12, -100, -63, -52, 67, 43, -29, -44, -33, -53, -62, -35, -56, -38, 60, 102, 96, -31, 25, 79, -93, -103, 12, 17, 56, 4, 100, -65, -83, 8, -63, -68, 5, 5, 72, 97, -12, -89, -63, 102, -82, 92, -97, 33, 89, 92, 32, -26, 55, 42, 39, 100, 94, -56, 48, 18, 102, 67, -72, 43, -50, -27, 53, 41, 90, -98, 64, -62, -91, -32, 83, 87, -13, -46, 73, 44, -87, 63, -51, 16, -13, -69, -39, -18, 30, 0, 1, 33, 24, -26, -27, -61, 64, -49, 41, 90, -43, 77, -26, 19, 61, -28, 51, -4, 81, -68, 95, -19, -44, 57, 60, 93, -27, -81, 97, 19, -61, 16, -48, 81, -76, 36, 27, 81, 7, 30, 91, -6, 15, -97, 71, 38, 52, -33, 38, 97, -99, -76, 52, -13, 51, 54, -67, -44, -20, -19, -34, -89, 54, 76, 31, -48, 28, -18, 55, -39, 39, 10, -21, 36, 49, -25, 46, 46, -45, 75, 94, 16, -52, 66, -97, -62, -16, 12, -68, 29, -28, -82, -27, -95, 29, 30, 16, -31, 71, 102, 20, 87, 86, -44, 85, 12, -6, -41, 88, 14, 38, 55, -37, -40, 64, 20, 56, 28, -29, -13, 99, -75, 42, -10, -6, -51, -49, -13, -78, 54, -88, 22, 39, 22, -75, -99, 19, 21, 87, 29, -54, -64, 37, 53, 56, -93, -41, -64, -57, -82, 37, 83, -57, 52, 60, -83, -74, -8, -41, 14, 25, -45, 5, -55, 87, 85, -92, -41, -3, 33, -44, -2, -68, -37, 95, -59, -55, 21, -29, 69, 64, -79, 13, -3, -95, 54, 100, 93, 27, -45, 38, 76, -67, 91, -99, -4, -82, 99, -82, 26, -70, 94, 75, 16, -12, -17, 2, -19, 45, 53, 36, -51, 38, -27, -57, 24, -33, -46, -92, -72, 70, -15, -87, -33, 54, 1, -87, 64, -92, 1, 89, -76, 65, -60, 44, 99, -19, 82, 8, -81, -85, 94, -88, -22, -60, 90, -83, 26, 26, -103, 85, -104, 41, 56, 15, 15, 9, -35, 101, -56, 33, -74, 7, -19, 5, 18, -37, 74, 35, -66, 53, 1, -36, -5, 0, -60, -101, -12, -90, -7, -61, -4, 62, 8, -62, 15, -16, 57, 22, 94, 68, -6, 95, 28, -101, -103, -40, 60, 58, 98, 95, -92, -34, -94, 36, 60, -40, -47, -42, 19, -49, 18, 101, -35, -1, -87, 17, -91, -26, 57, 8, -12, 7, 36, -93, -14, -89, -41, 31, 67, -18, -65, -4, -103, 46, -69, -28, -66, -31, -64, 10, 34, 8, 81, -99, -1, 69, 1, -56, -38, -63, 66, -5, -20, 61, -74, -11, 4, 20, -76, -63, 77, -24, 12, -98, 81, 1, 1, -89, -89, 103, -98, 82, 75, -11, 61, 50, -40, 51, -75, 86, 37, 5, -35, 38, 52, 50, -68, 26, -57, -52, -85, 99, 27, -67, -75, -65, 38, 7, 39, -24, 50, -74, 69, 4, 71, -24, -36, -56, -83, -96, -97, 26, -98, 59, -23, -91, 67, -7, 45, -16, 21, 72, 59, 102, 45, 58, 8, -20, 13, -27, 58, 104, -11, 25, -39, 93, 100, 13, 54, 64, 94, 81, -92, 103, 100, -63, -6, 28, -27, 74, -45, -35, 78, -66, 58, -102, -96, -23, -63, 24, -10, 2, 30, 61, 100, 74, 28, -101, -94, -52, -26, -8, -50, -77, -5, -90, 7, 20, -41, 38, -103, -58, 9, 0, -24, -102, 38, -81, -94, -79, 93, -41, 72, 97, 48, 32, 76, -57, 74, -49, 72, -68, 18, 20, 3, -53, 45, 60, -42, 4, 73, -16, 23, -51, 42, -35, 81, 23, -61, -80, 33, -30, -8, 21, -86, -101, 13, 41, 42, 1, -38, -76, -1, 85, -13, -94, 85, 29, 7, 54, 68, 49, -52, -4, 23, -70, -70, 40, 101, -101, -48, -39, 3, -60, -4, 3, 68, 21, 29, 19, -86, -32, 23, -63, 30, 7, -69, -72, -13, -95, 50, 98, 85, -34, 87, 67, -91, -39, -91, -46, -67, -27, -44, -67, -91, 15, -101, -55, 90, 83, 29, -49, -24, 99, 70, 99, -65, -37, 37, 69, -12, -33, -101, 4, -74, -25, -77, -34, 61, -55, 73, 60, 47, 43, 102, -39, -35, 32, -33, 102, -25, -79, -9, 27, 83, 93, 46, -40, 89, 29, -70, 49, -77, -39, 86, 100, 54, 16, 45, 16, -17, 71, 34, -9, -80, 46, 96, -93, -68, -88, 6, -54, -78, -13, -94, -73, 